<?xml version="1.0"?>
<MethodSetup Method="MLP::MLP_MM">
  <GeneralInfo>
    <Info name="TMVA Release" value="4.2.1 [262657]"/>
    <Info name="ROOT Release" value="6.06/01 [394753]"/>
    <Info name="Creator" value="mmackenz"/>
    <Info name="Date" value="Sat Dec  7 14:49:05 2019"/>
    <Info name="Host" value="Linux vocms0315.cern.ch 2.6.32-573.26.1.el6.x86_64 #1 SMP Wed May 4 09:23:05 CEST 2016 x86_64 x86_64 x86_64 GNU/Linux"/>
    <Info name="Dir" value="/uscms_data/d3/mmackenz/CMSSW_8_0_20/src/BLT/BLTAnalysis/tmva_training/training_background_ztautau_etau_28"/>
    <Info name="Training events" value="101595"/>
    <Info name="TrainingTime" value="6.29018088e+02"/>
    <Info name="AnalysisType" value="Classification"/>
  </GeneralInfo>
  <Options>
    <Option name="NCycles" modified="No">500</Option>
    <Option name="HiddenLayers" modified="Yes">10,5,3</Option>
    <Option name="NeuronType" modified="No">sigmoid</Option>
    <Option name="RandomSeed" modified="No">1</Option>
    <Option name="EstimatorType" modified="No">CE</Option>
    <Option name="NeuronInputType" modified="No">sum</Option>
    <Option name="V" modified="Yes">False</Option>
    <Option name="VerbosityLevel" modified="No">Default</Option>
    <Option name="VarTransform" modified="Yes">N</Option>
    <Option name="H" modified="Yes">False</Option>
    <Option name="CreateMVAPdfs" modified="No">False</Option>
    <Option name="IgnoreNegWeightsInTraining" modified="No">False</Option>
    <Option name="TrainingMethod" modified="No">BP</Option>
    <Option name="LearningRate" modified="No">2.000000e-02</Option>
    <Option name="DecayRate" modified="No">1.000000e-02</Option>
    <Option name="TestRate" modified="No">10</Option>
    <Option name="EpochMonitoring" modified="No">False</Option>
    <Option name="Sampling" modified="No">1.000000e+00</Option>
    <Option name="SamplingEpoch" modified="No">1.000000e+00</Option>
    <Option name="SamplingImportance" modified="No">1.000000e+00</Option>
    <Option name="SamplingTraining" modified="No">True</Option>
    <Option name="SamplingTesting" modified="No">False</Option>
    <Option name="ResetStep" modified="No">50</Option>
    <Option name="Tau" modified="No">3.000000e+00</Option>
    <Option name="BPMode" modified="No">sequential</Option>
    <Option name="BatchSize" modified="No">-1</Option>
    <Option name="ConvergenceImprove" modified="No">1.000000e-30</Option>
    <Option name="ConvergenceTests" modified="No">-1</Option>
    <Option name="UseRegulator" modified="No">False</Option>
    <Option name="UpdateLimit" modified="No">10000</Option>
    <Option name="CalculateErrors" modified="No">False</Option>
    <Option name="WeightRange" modified="No">1.000000e+00</Option>
  </Options>
  <Variables NVar="10">
    <Variable VarIndex="0" Expression="lepm" Label="lepm" Title="M_{ll}" Unit="GeV" Internal="lepm" Type="F" Min="1.02901554e+01" Max="2.06805273e+03"/>
    <Variable VarIndex="1" Expression="mtone" Label="mtone" Title="MT(MET,l1)" Unit="" Internal="mtone" Type="F" Min="2.44837011e-05" Max="1.07725574e+03"/>
    <Variable VarIndex="2" Expression="mttwo" Label="mttwo" Title="MT(MET,l2)" Unit="" Internal="mttwo" Type="F" Min="1.68377603e-03" Max="8.49397949e+02"/>
    <Variable VarIndex="3" Expression="leponept" Label="leponept" Title="pT_{l1}" Unit="" Internal="leponept" Type="F" Min="3.00004482e+01" Max="1.17305127e+03"/>
    <Variable VarIndex="4" Expression="leptwopt" Label="leptwopt" Title="pT_{l2}" Unit="" Internal="leptwopt" Type="F" Min="2.00001049e+01" Max="8.28341064e+02"/>
    <Variable VarIndex="5" Expression="pxivis" Label="pxivis" Title="p^{vis}_{#xi}" Unit="" Internal="pxivis" Type="F" Min="6.54697476e-04" Max="7.58108643e+02"/>
    <Variable VarIndex="6" Expression="pxiinv" Label="pxiinv" Title="p^{inv}_{#xi}" Unit="" Internal="pxiinv" Type="F" Min="-5.27782410e+02" Max="1.12468103e+03"/>
    <Variable VarIndex="7" Expression="njets" Label="njets" Title="nJets" Unit="" Internal="njets" Type="F" Min="0.00000000e+00" Max="1.00000000e+01"/>
    <Variable VarIndex="8" Expression="lepdeltaeta" Label="lepdeltaeta" Title="#Delta#eta_{ll}" Unit="" Internal="lepdeltaeta" Type="F" Min="4.26769257e-05" Max="4.75575304e+00"/>
    <Variable VarIndex="9" Expression="lepdeltaphi" Label="lepdeltaphi" Title="#Delta#phi_{ll}" Unit="" Internal="lepdeltaphi" Type="F" Min="1.62065029e-04" Max="3.14157820e+00"/>
  </Variables>
  <Spectators NSpec="6">
    <Spectator SpecIndex="0" Expression="leppt" Label="leppt" Title="Pt_{ll}" Unit="GeV" Internal="leppt" Type="F" Min="1.34310767e-01" Max="1.14865063e+03"/>
    <Spectator SpecIndex="1" Expression="met" Label="met" Title="MET" Unit="GeV" Internal="met" Type="F" Min="1.49326161e-01" Max="1.12615161e+03"/>
    <Spectator SpecIndex="2" Expression="lepdeltar" Label="lepdeltar" Title="#DeltaR_{ll}" Unit="" Internal="lepdeltar" Type="F" Min="3.14790398e-01" Max="5.36093473e+00"/>
    <Spectator SpecIndex="3" Expression="fulleventweight" Label="fulleventweight" Title="fullEventWeight" Unit="" Internal="fulleventweight" Type="F" Min="-2.38869165e-04" Max="1.14879699e-03"/>
    <Spectator SpecIndex="4" Expression="eventweight" Label="eventweight" Title="eventWeight" Unit="" Internal="eventweight" Type="F" Min="-1.29102743e+00" Max="1.49868381e+00"/>
    <Spectator SpecIndex="5" Expression="eventcategory" Label="eventcategory" Title="eventCategory" Unit="" Internal="eventcategory" Type="F" Min="1.00000000e+00" Max="3.30000000e+01"/>
  </Spectators>
  <Classes NClass="2">
    <Class Name="Background" Index="0"/>
    <Class Name="Signal" Index="1"/>
  </Classes>
  <Transformations NTransformations="1">
    <Transform Name="Normalize">
      <Selection>
        <Input NInputs="10">
          <Input Type="Variable" Label="lepm" Expression="lepm"/>
          <Input Type="Variable" Label="mtone" Expression="mtone"/>
          <Input Type="Variable" Label="mttwo" Expression="mttwo"/>
          <Input Type="Variable" Label="leponept" Expression="leponept"/>
          <Input Type="Variable" Label="leptwopt" Expression="leptwopt"/>
          <Input Type="Variable" Label="pxivis" Expression="pxivis"/>
          <Input Type="Variable" Label="pxiinv" Expression="pxiinv"/>
          <Input Type="Variable" Label="njets" Expression="njets"/>
          <Input Type="Variable" Label="lepdeltaeta" Expression="lepdeltaeta"/>
          <Input Type="Variable" Label="lepdeltaphi" Expression="lepdeltaphi"/>
        </Input>
        <Output NOutputs="10">
          <Output Type="Variable" Label="lepm" Expression="lepm"/>
          <Output Type="Variable" Label="mtone" Expression="mtone"/>
          <Output Type="Variable" Label="mttwo" Expression="mttwo"/>
          <Output Type="Variable" Label="leponept" Expression="leponept"/>
          <Output Type="Variable" Label="leptwopt" Expression="leptwopt"/>
          <Output Type="Variable" Label="pxivis" Expression="pxivis"/>
          <Output Type="Variable" Label="pxiinv" Expression="pxiinv"/>
          <Output Type="Variable" Label="njets" Expression="njets"/>
          <Output Type="Variable" Label="lepdeltaeta" Expression="lepdeltaeta"/>
          <Output Type="Variable" Label="lepdeltaphi" Expression="lepdeltaphi"/>
        </Output>
      </Selection>
      <Class ClassIndex="0">
        <Ranges>
          <Range Index="0" Min="1.0290155410766602e+01" Max="2.0680527343750000e+03"/>
          <Range Index="1" Min="2.4483701054123230e-05" Max="1.0772557373046875e+03"/>
          <Range Index="2" Min="1.6837760340422392e-03" Max="8.4939794921875000e+02"/>
          <Range Index="3" Min="3.0000448226928711e+01" Max="1.1730512695312500e+03"/>
          <Range Index="4" Min="2.0000104904174805e+01" Max="8.2834106445312500e+02"/>
          <Range Index="5" Min="6.5469747642055154e-04" Max="7.5810864257812500e+02"/>
          <Range Index="6" Min="-5.2778240966796875e+02" Max="1.1246810302734375e+03"/>
          <Range Index="7" Min="0.0000000000000000e+00" Max="1.0000000000000000e+01"/>
          <Range Index="8" Min="4.2676925659179688e-05" Max="4.7557530403137207e+00"/>
          <Range Index="9" Min="1.6206502914428711e-04" Max="3.1415781974792480e+00"/>
        </Ranges>
      </Class>
      <Class ClassIndex="1">
        <Ranges>
          <Range Index="0" Min="1.3099925041198730e+01" Max="3.6252423095703125e+02"/>
          <Range Index="1" Min="1.4509898424148560e-01" Max="1.9139132690429688e+02"/>
          <Range Index="2" Min="9.6236672252416611e-03" Max="1.3839491271972656e+02"/>
          <Range Index="3" Min="3.0028228759765625e+01" Max="2.2665237426757812e+02"/>
          <Range Index="4" Min="2.0010280609130859e+01" Max="1.3769609069824219e+02"/>
          <Range Index="5" Min="9.9981818348169327e-03" Max="2.5745358276367188e+02"/>
          <Range Index="6" Min="-5.9739456176757812e+01" Max="1.3016123962402344e+02"/>
          <Range Index="7" Min="0.0000000000000000e+00" Max="4.0000000000000000e+00"/>
          <Range Index="8" Min="3.9257556200027466e-03" Max="2.1467692852020264e+00"/>
          <Range Index="9" Min="1.7969608306884766e-02" Max="3.1412925720214844e+00"/>
        </Ranges>
      </Class>
      <Class ClassIndex="2">
        <Ranges>
          <Range Index="0" Min="1.0290155410766602e+01" Max="2.0680527343750000e+03"/>
          <Range Index="1" Min="2.4483701054123230e-05" Max="1.0772557373046875e+03"/>
          <Range Index="2" Min="1.6837760340422392e-03" Max="8.4939794921875000e+02"/>
          <Range Index="3" Min="3.0000448226928711e+01" Max="1.1730512695312500e+03"/>
          <Range Index="4" Min="2.0000104904174805e+01" Max="8.2834106445312500e+02"/>
          <Range Index="5" Min="6.5469747642055154e-04" Max="7.5810864257812500e+02"/>
          <Range Index="6" Min="-5.2778240966796875e+02" Max="1.1246810302734375e+03"/>
          <Range Index="7" Min="0.0000000000000000e+00" Max="1.0000000000000000e+01"/>
          <Range Index="8" Min="4.2676925659179688e-05" Max="4.7557530403137207e+00"/>
          <Range Index="9" Min="1.6206502914428711e-04" Max="3.1415781974792480e+00"/>
        </Ranges>
      </Class>
    </Transform>
  </Transformations>
  <MVAPdfs/>
  <Weights>
    <Layout NLayers="5">
      <Layer Index="0" NNeurons="11">
        <Neuron NSynapses="10">
          6.8045191919773087e+00 3.4104768323398345e+00 -1.4702549610653413e-03 2.1123759417651047e+00 -8.9977495428781795e-01 -8.5042640731349302e+00 9.8344147280957106e+00 2.7426401894937165e+00 -5.5300505988983870e+00 -1.0469201487235178e+00 
        </Neuron>
        <Neuron NSynapses="10">
          3.5972418357480480e+00 -5.6275330908897709e+00 -2.5755328047072057e+00 9.3901989472607328e-01 1.3578223247188366e+00 -1.6565724493401188e+01 1.8263775135008327e+01 2.3111650824943735e+00 5.6661889054722074e+00 8.7860611361200569e-01 
        </Neuron>
        <Neuron NSynapses="10">
          -2.4643963876463565e-01 -2.8083563752555154e+00 -2.8802210176489118e-01 1.6439661087187329e+00 8.5312464629908702e-01 -1.7121125273350561e+01 1.9026158058663668e+01 -3.9183054708848819e-01 7.5859614833017046e+00 -8.8075437863218042e-01 
        </Neuron>
        <Neuron NSynapses="10">
          6.5284993344075550e+00 7.9965237245455212e-01 -7.3878079547677611e-01 9.8300990846435499e-01 1.9243046684103615e+00 -1.8183429546822193e+01 1.0932178492117002e+01 2.4647064378275920e+00 -1.1187959006485229e+00 1.5277373707887958e+00 
        </Neuron>
        <Neuron NSynapses="10">
          -2.8229058683673238e+00 4.7906123735259589e+00 1.7576184507029711e+00 1.0965639557084110e+00 -2.0266795010961697e-01 8.5282301238722003e+00 -2.1064088106068168e+00 8.7904339602299175e-01 -4.1427375467862460e+00 2.0312647636703374e+00 
        </Neuron>
        <Neuron NSynapses="10">
          -2.4307725230782573e+00 4.9671766590098271e-01 -2.3509244916196903e+00 3.5882323011675217e+00 7.9971489061035150e-01 1.5277469523813869e+01 -1.8655663798579873e+01 -1.0568637916976003e+00 -1.5124884165541168e+00 9.4756015217268363e-01 
        </Neuron>
        <Neuron NSynapses="10">
          -9.0665039464086341e+00 -1.5239215791121938e+00 1.1262307157970759e+00 5.5212399546074153e-01 1.9046775051137919e+00 6.1835991032570936e+00 -1.1868141556161694e+01 -9.2667678742933490e-01 -4.3861707835886499e+00 4.1183225324561684e-01 
        </Neuron>
        <Neuron NSynapses="10">
          6.1491700357443060e+00 3.1512580056997958e-01 -2.0075385583213792e+00 3.3694749162623148e+00 3.7645119709145503e+00 -5.5059301833889984e+00 -4.3848500373092802e+00 -1.0967123572211537e+00 1.1280571367781407e+01 -6.0580652122561762e-01 
        </Neuron>
        <Neuron NSynapses="10">
          1.8439994669879489e+01 8.4077369909635113e-01 -4.2793427704695208e+00 3.2835164217906851e+00 3.9858059206098151e+00 -1.2482162871485543e+00 2.7747710622384907e+00 -5.1956581496018439e-01 -4.0258814869062336e+00 -5.7351715842621056e+00 
        </Neuron>
        <Neuron NSynapses="10">
          2.4924254872822211e+00 -6.1224380836630243e-01 8.8888413552781014e+00 -9.3937723320259590e+00 -8.6372274346287039e+00 4.4052408377200090e+00 -9.4503582449947643e-01 -1.7111363183667869e+00 -6.8785737605634685e+00 1.6490880183719407e+00 
        </Neuron>
        <Neuron NSynapses="10">
          1.3270236168482311e+01 1.3818252102548090e+00 1.0836536677676998e+00 1.7817024404060968e+00 -1.7401046085417966e+00 -3.8576598004650066e+01 2.4383610701779631e+01 -1.6278964223819630e+00 1.2098928739899357e+01 7.0297189816556016e-01 
        </Neuron>
      </Layer>
      <Layer Index="1" NNeurons="11">
        <Neuron NSynapses="5">
          -9.7879617962472825e+00 -9.0583348730409263e-01 1.1961162257621380e+01 -1.1405132617975116e+00 -1.0473246089817259e+01 
        </Neuron>
        <Neuron NSynapses="5">
          1.8172917865860385e+00 1.5737427981166112e+00 -2.0836336277149994e-01 2.4942647937972775e+00 -4.9530067402961766e+00 
        </Neuron>
        <Neuron NSynapses="5">
          -3.4603869072897266e+00 2.0688209901139292e+00 -3.5851829670812285e+00 3.9461008575138368e+00 -1.6169213741904969e+00 
        </Neuron>
        <Neuron NSynapses="5">
          -1.8670142872253108e+00 -2.8350016756429723e+00 9.7031814560503704e-01 -3.5551896600271222e+00 2.2799561431537857e-01 
        </Neuron>
        <Neuron NSynapses="5">
          -1.1366073706360413e+00 -4.2844656435465529e+00 1.0005923080713237e+00 -2.3853905412742775e+00 -2.0373025997773841e-01 
        </Neuron>
        <Neuron NSynapses="5">
          7.9760558840922178e+00 3.6675120102158743e+00 -5.2035493921358666e+00 2.6418071230182707e+00 9.5765930323020054e+00 
        </Neuron>
        <Neuron NSynapses="5">
          -7.8846047948170783e+00 -1.4509079782248040e+00 5.7895617116465257e+00 -3.3747984093934984e+00 -6.0252380274619108e+00 
        </Neuron>
        <Neuron NSynapses="5">
          9.4347736660315007e-01 5.8452677349255577e-01 -2.3400064554125757e-01 -1.1041511676386588e+00 -5.3216028962274131e-01 
        </Neuron>
        <Neuron NSynapses="5">
          1.5288594429580149e+00 -2.8982750492839240e+00 3.4916349888020091e+00 -3.4264145794332124e+00 -1.8019718468119856e+00 
        </Neuron>
        <Neuron NSynapses="5">
          -2.7943350101508133e+00 7.2757781572971136e-01 -4.4302970785554940e+00 -5.8755496468731805e-01 -3.5352688337829892e+00 
        </Neuron>
        <Neuron NSynapses="5">
          1.0849232271453699e+00 5.6347373543830281e-01 -1.9545245133174873e+00 7.5580221437769035e-01 -2.6024505656317203e+00 
        </Neuron>
      </Layer>
      <Layer Index="2" NNeurons="6">
        <Neuron NSynapses="3">
          -3.5886756292422177e+00 -5.8335932846008145e+00 -4.4932388045504972e+00 
        </Neuron>
        <Neuron NSynapses="3">
          -3.4923636389897523e+00 -1.5296138456932478e+00 1.6853755559705341e+00 
        </Neuron>
        <Neuron NSynapses="3">
          2.6290896200462419e+00 6.2871351198447440e+00 6.0257734957195899e+00 
        </Neuron>
        <Neuron NSynapses="3">
          1.7489147137370302e+00 -4.8076872041937548e+00 1.5154728014511976e+00 
        </Neuron>
        <Neuron NSynapses="3">
          -1.0378292111904481e+00 -1.4591534137849427e+00 -7.1943719825163823e+00 
        </Neuron>
        <Neuron NSynapses="3">
          -5.7275184150921199e-01 2.8469517384532379e+00 2.0119976929307559e+00 
        </Neuron>
      </Layer>
      <Layer Index="3" NNeurons="4">
        <Neuron NSynapses="1">
          -3.4769187843443778e+00 
        </Neuron>
        <Neuron NSynapses="1">
          -5.3888206245349419e+00 
        </Neuron>
        <Neuron NSynapses="1">
          -3.5842367153637880e+00 
        </Neuron>
        <Neuron NSynapses="1">
          2.4021517003819675e+00 
        </Neuron>
      </Layer>
      <Layer Index="4" NNeurons="1">
        <Neuron NSynapses="0"/>
      </Layer>
    </Layout>
  </Weights>
</MethodSetup>
