<?xml version="1.0"?>
<MethodSetup Method="MLP::MLP_MM">
  <GeneralInfo>
    <Info name="TMVA Release" value="4.2.1 [262657]"/>
    <Info name="ROOT Release" value="6.06/01 [394753]"/>
    <Info name="Creator" value="mmackenz"/>
    <Info name="Date" value="Wed Feb 12 11:33:42 2020"/>
    <Info name="Host" value="Linux vocms0315.cern.ch 2.6.32-573.26.1.el6.x86_64 #1 SMP Wed May 4 09:23:05 CEST 2016 x86_64 x86_64 x86_64 GNU/Linux"/>
    <Info name="Dir" value="/uscms_data/d3/mmackenz/CMSSW_8_0_20/src/BLT/BLTAnalysis/tmva_training/training_background_ztautau_higgs_etau_28"/>
    <Info name="Training events" value="289206"/>
    <Info name="TrainingTime" value="1.98512818e+03"/>
    <Info name="AnalysisType" value="Classification"/>
  </GeneralInfo>
  <Options>
    <Option name="NCycles" modified="No">500</Option>
    <Option name="HiddenLayers" modified="Yes">10,5,5</Option>
    <Option name="NeuronType" modified="No">sigmoid</Option>
    <Option name="RandomSeed" modified="No">1</Option>
    <Option name="EstimatorType" modified="No">CE</Option>
    <Option name="NeuronInputType" modified="No">sum</Option>
    <Option name="V" modified="Yes">False</Option>
    <Option name="VerbosityLevel" modified="No">Default</Option>
    <Option name="VarTransform" modified="Yes">N</Option>
    <Option name="H" modified="Yes">False</Option>
    <Option name="CreateMVAPdfs" modified="Yes">False</Option>
    <Option name="IgnoreNegWeightsInTraining" modified="No">False</Option>
    <Option name="TrainingMethod" modified="No">BP</Option>
    <Option name="LearningRate" modified="No">2.000000e-02</Option>
    <Option name="DecayRate" modified="No">1.000000e-02</Option>
    <Option name="TestRate" modified="No">10</Option>
    <Option name="EpochMonitoring" modified="No">False</Option>
    <Option name="Sampling" modified="No">1.000000e+00</Option>
    <Option name="SamplingEpoch" modified="No">1.000000e+00</Option>
    <Option name="SamplingImportance" modified="No">1.000000e+00</Option>
    <Option name="SamplingTraining" modified="No">True</Option>
    <Option name="SamplingTesting" modified="No">False</Option>
    <Option name="ResetStep" modified="No">50</Option>
    <Option name="Tau" modified="No">3.000000e+00</Option>
    <Option name="BPMode" modified="No">sequential</Option>
    <Option name="BatchSize" modified="No">-1</Option>
    <Option name="ConvergenceImprove" modified="No">1.000000e-30</Option>
    <Option name="ConvergenceTests" modified="No">-1</Option>
    <Option name="UseRegulator" modified="No">False</Option>
    <Option name="UpdateLimit" modified="No">10000</Option>
    <Option name="CalculateErrors" modified="No">False</Option>
    <Option name="WeightRange" modified="No">1.000000e+00</Option>
  </Options>
  <Variables NVar="12">
    <Variable VarIndex="0" Expression="lepm" Label="lepm" Title="M_{ll}" Unit="GeV" Internal="lepm" Type="F" Min="8.97169876e+00" Max="1.78056750e+03"/>
    <Variable VarIndex="1" Expression="mtone" Label="mtone" Title="MT(MET,l1)" Unit="" Internal="mtone" Type="F" Min="2.15557884e-04" Max="4.61794385e+03"/>
    <Variable VarIndex="2" Expression="mttwo" Label="mttwo" Title="MT(MET,l2)" Unit="" Internal="mttwo" Type="F" Min="6.25483925e-04" Max="4.86478613e+03"/>
    <Variable VarIndex="3" Expression="leponept" Label="leponept" Title="pT_{l1}" Unit="" Internal="leponept" Type="F" Min="3.00000381e+01" Max="1.21991809e+03"/>
    <Variable VarIndex="4" Expression="leptwopt" Label="leptwopt" Title="pT_{l2}" Unit="" Internal="leptwopt" Type="F" Min="2.00000801e+01" Max="8.28055481e+02"/>
    <Variable VarIndex="5" Expression="leppt" Label="leppt" Title="Pt_{ll}" Unit="GeV" Internal="leppt" Type="F" Min="2.90292725e-02" Max="1.25190320e+03"/>
    <Variable VarIndex="6" Expression="njets" Label="njets" Title="nJets" Unit="" Internal="njets" Type="F" Min="0.00000000e+00" Max="1.00000000e+01"/>
    <Variable VarIndex="7" Expression="lepmestimate" Label="lepmestimate" Title="M_{ll}^{Coll}" Unit="GeV" Internal="lepmestimate" Type="F" Min="9.70116520e+00" Max="3.72597217e+03"/>
    <Variable VarIndex="8" Expression="onemetdeltaphi" Label="onemetdeltaphi" Title="#Delta#phi_{MET,l1}" Unit="" Internal="onemetdeltaphi" Type="F" Min="5.00679016e-06" Max="3.14157414e+00"/>
    <Variable VarIndex="9" Expression="leponedeltaphi" Label="leponedeltaphi" Title="#Delta#phi_{l1,ll}" Unit="" Internal="leponedeltaphi" Type="F" Min="3.57111787e-07" Max="3.14148760e+00"/>
    <Variable VarIndex="10" Expression="leptwodeltaphi" Label="leptwodeltaphi" Title="#Delta#phi_{l2,ll}" Unit="" Internal="leptwodeltaphi" Type="F" Min="8.34981108e-07" Max="3.14158535e+00"/>
    <Variable VarIndex="11" Expression="ht" Label="ht" Title="pT(#Sigma #vec{P}_{Jet})" Unit="" Internal="ht" Type="F" Min="0.00000000e+00" Max="1.64281543e+03"/>
  </Variables>
  <Spectators NSpec="16">
    <Spectator SpecIndex="0" Expression="pxivis" Label="pxivis" Title="p^{vis}_{#xi}" Unit="" Internal="pxivis" Type="F" Min="1.54067224e-04" Max="1.11009668e+03"/>
    <Spectator SpecIndex="1" Expression="pxiinv" Label="pxiinv" Title="p^{inv}_{#xi}" Unit="" Internal="pxiinv" Type="F" Min="-1.23349984e+05" Max="9.90599062e+04"/>
    <Spectator SpecIndex="2" Expression="lepdeltaeta" Label="lepdeltaeta" Title="#Delta#eta_{ll}" Unit="" Internal="lepdeltaeta" Type="F" Min="3.69548798e-06" Max="4.75575304e+00"/>
    <Spectator SpecIndex="3" Expression="metdeltaphi" Label="metdeltaphi" Title="#Delta#phi_{MET,ll}" Unit="" Internal="metdeltaphi" Type="F" Min="6.05889056e-07" Max="3.14157391e+00"/>
    <Spectator SpecIndex="4" Expression="leponed0" Label="leponed0" Title="D0_{l1}" Unit="" Internal="leponed0" Type="F" Min="-9.73708555e-02" Max="9.71689671e-02"/>
    <Spectator SpecIndex="5" Expression="leptwod0" Label="leptwod0" Title="D0_{l2}" Unit="" Internal="leptwod0" Type="F" Min="-2.67343760e-01" Max="1.74999997e-01"/>
    <Spectator SpecIndex="6" Expression="htdeltaphi" Label="htdeltaphi" Title="#Delta#phi_{MET,ll}" Unit="" Internal="htdeltaphi" Type="F" Min="1.25078332e-05" Max="3.14158940e+00"/>
    <Spectator SpecIndex="7" Expression="lepdeltaphi" Label="lepdeltaphi" Title="#Delta#phi_{ll}" Unit="" Internal="lepdeltaphi" Type="F" Min="1.19209290e-06" Max="3.14159012e+00"/>
    <Spectator SpecIndex="8" Expression="htsum" Label="htsum" Title="#Sigma pT_{Jet}" Unit="" Internal="htsum" Type="F" Min="0.00000000e+00" Max="2.55455151e+03"/>
    <Spectator SpecIndex="9" Expression="leponeiso" Label="leponeiso" Title="Iso_{l1}" Unit="" Internal="leponeiso" Type="F" Min="0.00000000e+00" Max="1.91558361e+01"/>
    <Spectator SpecIndex="10" Expression="twometdeltaphi" Label="twometdeltaphi" Title="#Delta#phi_{MET,l2}" Unit="" Internal="twometdeltaphi" Type="F" Min="1.43051147e-05" Max="3.14157605e+00"/>
    <Spectator SpecIndex="11" Expression="met" Label="met" Title="MET" Unit="GeV" Internal="met" Type="F" Min="4.60503101e-02" Max="1.43698125e+05"/>
    <Spectator SpecIndex="12" Expression="lepdeltar" Label="lepdeltar" Title="#DeltaR_{ll}" Unit="" Internal="lepdeltar" Type="F" Min="3.07121664e-01" Max="5.68903303e+00"/>
    <Spectator SpecIndex="13" Expression="fulleventweight" Label="fulleventweight" Title="fullEventWeight" Unit="" Internal="fulleventweight" Type="F" Min="-2.38869165e-04" Max="1.16636581e-03"/>
    <Spectator SpecIndex="14" Expression="eventweight" Label="eventweight" Title="eventWeight" Unit="" Internal="eventweight" Type="F" Min="-1.39927137e+00" Max="1.55497622e+00"/>
    <Spectator SpecIndex="15" Expression="eventcategory" Label="eventcategory" Title="eventCategory" Unit="" Internal="eventcategory" Type="F" Min="1.00000000e+00" Max="3.60000000e+01"/>
  </Spectators>
  <Classes NClass="2">
    <Class Name="Background" Index="0"/>
    <Class Name="Signal" Index="1"/>
  </Classes>
  <Transformations NTransformations="1">
    <Transform Name="Normalize">
      <Selection>
        <Input NInputs="12">
          <Input Type="Variable" Label="lepm" Expression="lepm"/>
          <Input Type="Variable" Label="mtone" Expression="mtone"/>
          <Input Type="Variable" Label="mttwo" Expression="mttwo"/>
          <Input Type="Variable" Label="leponept" Expression="leponept"/>
          <Input Type="Variable" Label="leptwopt" Expression="leptwopt"/>
          <Input Type="Variable" Label="leppt" Expression="leppt"/>
          <Input Type="Variable" Label="njets" Expression="njets"/>
          <Input Type="Variable" Label="lepmestimate" Expression="lepmestimate"/>
          <Input Type="Variable" Label="onemetdeltaphi" Expression="onemetdeltaphi"/>
          <Input Type="Variable" Label="leponedeltaphi" Expression="leponedeltaphi"/>
          <Input Type="Variable" Label="leptwodeltaphi" Expression="leptwodeltaphi"/>
          <Input Type="Variable" Label="ht" Expression="ht"/>
        </Input>
        <Output NOutputs="12">
          <Output Type="Variable" Label="lepm" Expression="lepm"/>
          <Output Type="Variable" Label="mtone" Expression="mtone"/>
          <Output Type="Variable" Label="mttwo" Expression="mttwo"/>
          <Output Type="Variable" Label="leponept" Expression="leponept"/>
          <Output Type="Variable" Label="leptwopt" Expression="leptwopt"/>
          <Output Type="Variable" Label="leppt" Expression="leppt"/>
          <Output Type="Variable" Label="njets" Expression="njets"/>
          <Output Type="Variable" Label="lepmestimate" Expression="lepmestimate"/>
          <Output Type="Variable" Label="onemetdeltaphi" Expression="onemetdeltaphi"/>
          <Output Type="Variable" Label="leponedeltaphi" Expression="leponedeltaphi"/>
          <Output Type="Variable" Label="leptwodeltaphi" Expression="leptwodeltaphi"/>
          <Output Type="Variable" Label="ht" Expression="ht"/>
        </Output>
      </Selection>
      <Class ClassIndex="0">
        <Ranges>
          <Range Index="0" Min="8.9716987609863281e+00" Max="1.7805675048828125e+03"/>
          <Range Index="1" Min="2.1555788407567888e-04" Max="4.6179438476562500e+03"/>
          <Range Index="2" Min="6.2548392452299595e-04" Max="4.8647861328125000e+03"/>
          <Range Index="3" Min="3.0000038146972656e+01" Max="1.2199180908203125e+03"/>
          <Range Index="4" Min="2.0000080108642578e+01" Max="8.2805548095703125e+02"/>
          <Range Index="5" Min="2.9029272496700287e-02" Max="1.2519031982421875e+03"/>
          <Range Index="6" Min="0.0000000000000000e+00" Max="1.0000000000000000e+01"/>
          <Range Index="7" Min="9.7011651992797852e+00" Max="3.7259721679687500e+03"/>
          <Range Index="8" Min="5.0067901611328125e-06" Max="3.1415741443634033e+00"/>
          <Range Index="9" Min="3.5711178725250647e-07" Max="3.1414875984191895e+00"/>
          <Range Index="10" Min="8.3498110825530603e-07" Max="3.1415853500366211e+00"/>
          <Range Index="11" Min="0.0000000000000000e+00" Max="1.6428154296875000e+03"/>
        </Ranges>
      </Class>
      <Class ClassIndex="1">
        <Ranges>
          <Range Index="0" Min="2.6417926788330078e+01" Max="2.0180033874511719e+02"/>
          <Range Index="1" Min="1.4606237411499023e-02" Max="3.5087384033203125e+02"/>
          <Range Index="2" Min="5.2390010096132755e-03" Max="4.4377517700195312e+02"/>
          <Range Index="3" Min="3.0008544921875000e+01" Max="5.5939538574218750e+02"/>
          <Range Index="4" Min="2.0012304306030273e+01" Max="3.6400225830078125e+02"/>
          <Range Index="5" Min="7.7442377805709839e-01" Max="6.2835980224609375e+02"/>
          <Range Index="6" Min="0.0000000000000000e+00" Max="6.0000000000000000e+00"/>
          <Range Index="7" Min="2.6417926788330078e+01" Max="2.6614559936523438e+02"/>
          <Range Index="8" Min="2.7918815612792969e-04" Max="3.1402788162231445e+00"/>
          <Range Index="9" Min="3.4737656824290752e-04" Max="3.1399500370025635e+00"/>
          <Range Index="10" Min="8.2979683065786958e-04" Max="3.1410176753997803e+00"/>
          <Range Index="11" Min="0.0000000000000000e+00" Max="7.1866479492187500e+02"/>
        </Ranges>
      </Class>
      <Class ClassIndex="2">
        <Ranges>
          <Range Index="0" Min="8.9716987609863281e+00" Max="1.7805675048828125e+03"/>
          <Range Index="1" Min="2.1555788407567888e-04" Max="4.6179438476562500e+03"/>
          <Range Index="2" Min="6.2548392452299595e-04" Max="4.8647861328125000e+03"/>
          <Range Index="3" Min="3.0000038146972656e+01" Max="1.2199180908203125e+03"/>
          <Range Index="4" Min="2.0000080108642578e+01" Max="8.2805548095703125e+02"/>
          <Range Index="5" Min="2.9029272496700287e-02" Max="1.2519031982421875e+03"/>
          <Range Index="6" Min="0.0000000000000000e+00" Max="1.0000000000000000e+01"/>
          <Range Index="7" Min="9.7011651992797852e+00" Max="3.7259721679687500e+03"/>
          <Range Index="8" Min="5.0067901611328125e-06" Max="3.1415741443634033e+00"/>
          <Range Index="9" Min="3.5711178725250647e-07" Max="3.1414875984191895e+00"/>
          <Range Index="10" Min="8.3498110825530603e-07" Max="3.1415853500366211e+00"/>
          <Range Index="11" Min="0.0000000000000000e+00" Max="1.6428154296875000e+03"/>
        </Ranges>
      </Class>
    </Transform>
  </Transformations>
  <MVAPdfs/>
  <Weights>
    <Layout NLayers="5">
      <Layer Index="0" NNeurons="13">
        <Neuron NSynapses="10">
          4.0266983708618076e+00 -1.9278582423222023e+01 -2.3544871931394884e+01 7.3535384262861612e+01 7.9577804654642506e+01 -6.7433448564763978e+00 2.0520575791115681e+00 1.2488916615508723e+01 5.9450898890806183e+00 -3.2675262272989034e+00 
        </Neuron>
        <Neuron NSynapses="10">
          1.2790690101836912e+01 2.3119423304623190e+00 -1.3309989611828494e+00 -2.7902951624077584e+01 6.7577051453255024e+00 -2.6627417430102573e+00 1.1410893484478846e+01 8.8880602401430533e+00 -2.8247118711765342e+01 -7.6157561599288623e+00 
        </Neuron>
        <Neuron NSynapses="10">
          1.6061170923376977e+01 8.7294618526385861e+00 1.3886211824104423e+01 -9.7501326271246569e+01 -1.4862852297272536e+01 -2.2862975107613956e+00 1.5356293546465185e+01 4.7467542532819778e+00 -4.2857654557436156e+01 -1.0845031573252207e+01 
        </Neuron>
        <Neuron NSynapses="10">
          -2.1960408823150619e+00 -3.1276178199590308e+00 2.4922079035425631e+00 2.3186370005731376e+01 -1.1796338889145680e+01 2.2271746874488825e+00 -3.9802555109922597e+00 5.6312726740080077e+00 -4.3404143668087558e+00 2.7146667496575283e+00 
        </Neuron>
        <Neuron NSynapses="10">
          -4.3596848993206736e+00 5.5723383681506924e+00 2.5761578895490658e+01 2.5570878308288119e+01 -7.9710114142462025e+00 8.9699781227432620e+00 -3.1245578820838964e+00 -1.4424253701904854e+00 1.9258465306930262e+01 3.9346635378233317e+00 
        </Neuron>
        <Neuron NSynapses="10">
          -7.7601071403550224e+00 4.4638153953141577e+00 3.4327876582091252e+00 -4.7007146342130977e+00 4.8254852626179314e+00 4.7863825956749082e+00 -9.3210067292917955e+00 -4.6751911761454212e-02 3.0145338722299941e+00 6.9119108941014256e+00 
        </Neuron>
        <Neuron NSynapses="10">
          -2.3368818164861089e+00 2.2091362955092859e+00 -3.1572990247060318e+01 -2.1100991944115512e+00 1.2273366036938604e+00 5.0413773167512266e-01 -1.5859058925437541e+00 2.5675633117180823e+00 1.7219174939274915e+00 3.6572859429480897e+00 
        </Neuron>
        <Neuron NSynapses="10">
          8.0361663367767093e+00 -1.2788231193548063e+01 -1.4741477866138665e+01 6.6720765350800704e+01 4.1423155987925298e+01 -4.4497899740915692e+00 4.8121559404442698e+00 6.8708824834344906e+00 1.0850393912335539e+01 -4.4925326869499980e+00 
        </Neuron>
        <Neuron NSynapses="10">
          1.9057281503522780e-01 -9.7791203881507555e-02 4.7790789406778575e+00 3.9227374166146595e-01 -1.9217058404896842e-01 2.2882018996516753e+00 -8.8169385017458446e-01 -4.6119005165961875e+00 -4.0304221717056726e-01 -4.7169746130379497e+00 
        </Neuron>
        <Neuron NSynapses="10">
          -8.0200457438448716e+00 3.6605071883910938e+00 3.7313144767316814e+01 -1.3375226820362707e+00 6.9470132188019151e-01 1.8853784409173340e+01 -6.1116601408460598e+00 -1.1870746700296888e+01 2.2818165723279416e+00 2.4992842390372565e+00 
        </Neuron>
        <Neuron NSynapses="10">
          -1.0789340324607149e+01 2.3623958637835125e+00 3.7968564237817461e+01 -5.7069672589346332e-01 1.5354025620909537e+00 1.6865725110408999e+01 -6.6363536210793885e+00 -1.3155694237848918e+01 3.7471947274640831e+00 7.3521309017713921e-01 
        </Neuron>
        <Neuron NSynapses="10">
          -1.0499625246473993e+01 1.0537124261794416e+01 8.5969845717487967e+00 -8.1106407376753324e+00 8.6530195346568792e+00 1.2388835767908086e+01 -6.6587962828913669e+00 -2.5374698527654043e+00 3.8873457189882465e+01 4.6908945084618221e+00 
        </Neuron>
        <Neuron NSynapses="10">
          -1.5763802494335946e+01 -1.3931445827874045e+01 -2.8771924396035477e+01 3.9668183330602510e+01 9.5502762827801675e+01 -2.0599409539762443e+00 -1.2639697116609385e+01 -2.2240303909916848e+00 4.8012512446160800e+00 1.0953965344733533e+01 
        </Neuron>
      </Layer>
      <Layer Index="1" NNeurons="11">
        <Neuron NSynapses="5">
          -4.0010842172773149e+00 -6.9144235708619339e+00 -6.9572594335740181e+00 -5.4232866794082293e+00 2.5505094323892301e+00 
        </Neuron>
        <Neuron NSynapses="5">
          6.5264044620963482e+00 4.2349148223584114e+00 -3.1912760264771816e+00 -5.6204694850575390e+00 -6.5166404586048543e-01 
        </Neuron>
        <Neuron NSynapses="5">
          9.9983175286278509e+00 -3.6417050832260873e+00 -1.7807969901839424e+01 -4.3075079289728757e-01 -2.3291837558933892e+00 
        </Neuron>
        <Neuron NSynapses="5">
          1.1818070180101405e+01 1.0886103959845304e+01 2.3804859966168706e+01 1.9056499295478400e+01 -4.1091929307793515e+00 
        </Neuron>
        <Neuron NSynapses="5">
          -1.7116089041020643e+01 -1.1742710807828383e+01 1.0421851278493245e+01 2.9824666455292044e+00 -1.2147825123143701e+00 
        </Neuron>
        <Neuron NSynapses="5">
          9.0308271101702111e+00 5.4136386163467280e+00 6.4627055337888555e+00 5.4546939041928466e+00 -3.9727877224336008e+00 
        </Neuron>
        <Neuron NSynapses="5">
          -4.4236929975226996e-01 -5.8470787067133454e+00 -6.7381025749749437e+00 -6.5977020182343304e+00 3.5332015755179431e+00 
        </Neuron>
        <Neuron NSynapses="5">
          -5.7389001816997434e+00 -4.7762157952725195e+00 -6.0823996746235609e-01 -6.0399319870365922e+00 1.5840550456133633e+00 
        </Neuron>
        <Neuron NSynapses="5">
          8.0608528003795268e+00 7.6668165069152510e+00 -1.1711100663684872e+00 5.0685112206562255e-01 -1.2287680728063735e+00 
        </Neuron>
        <Neuron NSynapses="5">
          -6.0706434578758017e+00 -2.1738317014064141e+00 2.8783672061433849e+00 -5.7308688612105820e+00 -5.4644110823055208e+00 
        </Neuron>
        <Neuron NSynapses="5">
          -8.9998591702697173e+00 -6.6366076814353372e+00 -2.7139641514115334e+00 -1.4796741648934219e+01 -1.3188769820782353e+00 
        </Neuron>
      </Layer>
      <Layer Index="2" NNeurons="6">
        <Neuron NSynapses="5">
          -1.3363221826448479e+01 2.3766969575702683e+00 4.7219127932918159e+00 -9.6100446092406386e+00 -1.2210935773295196e+01 
        </Neuron>
        <Neuron NSynapses="5">
          -4.2408510813904021e+00 8.9559256859154068e+00 -2.7047730584634331e+00 3.9428102620774443e+00 -1.0819935300520303e+01 
        </Neuron>
        <Neuron NSynapses="5">
          6.5198292165874960e-01 -2.7260370219452685e+00 9.9173784819550448e-01 -3.7336061241047194e+00 -3.8576745740853724e+00 
        </Neuron>
        <Neuron NSynapses="5">
          2.3846456026049920e+00 6.0006653417991513e+00 -2.0601298472212797e+00 -3.7110383908881710e+00 2.5566997257063782e+00 
        </Neuron>
        <Neuron NSynapses="5">
          1.0665812043057565e+00 -1.6236380475018442e+00 -1.2198164420227509e+00 2.6459581236964187e+00 1.0237007967444356e+00 
        </Neuron>
        <Neuron NSynapses="5">
          2.6159519599367975e+00 -9.6701689551207188e+00 -8.7413440961519289e+00 -6.8248445301224803e-01 3.2963904307673726e+00 
        </Neuron>
      </Layer>
      <Layer Index="3" NNeurons="6">
        <Neuron NSynapses="1">
          -1.8925517640747873e+00 
        </Neuron>
        <Neuron NSynapses="1">
          4.1236811842084258e+00 
        </Neuron>
        <Neuron NSynapses="1">
          -8.0079255788241821e-01 
        </Neuron>
        <Neuron NSynapses="1">
          -1.3575057329440245e+00 
        </Neuron>
        <Neuron NSynapses="1">
          -4.8280972329173695e+00 
        </Neuron>
        <Neuron NSynapses="1">
          7.9431305841669164e-01 
        </Neuron>
      </Layer>
      <Layer Index="4" NNeurons="1">
        <Neuron NSynapses="0"/>
      </Layer>
    </Layout>
  </Weights>
</MethodSetup>
