<?xml version="1.0"?>
<MethodSetup Method="MLP::MLP_MM">
  <GeneralInfo>
    <Info name="TMVA Release" value="4.2.1 [262657]"/>
    <Info name="ROOT Release" value="6.06/01 [394753]"/>
    <Info name="Creator" value="mmackenz"/>
    <Info name="Date" value="Tue Dec 10 14:54:35 2019"/>
    <Info name="Host" value="Linux vocms0315.cern.ch 2.6.32-573.26.1.el6.x86_64 #1 SMP Wed May 4 09:23:05 CEST 2016 x86_64 x86_64 x86_64 GNU/Linux"/>
    <Info name="Dir" value="/uscms_data/d3/mmackenz/CMSSW_8_0_20/src/BLT/BLTAnalysis/tmva_training/training_background_ztautau_etau_28"/>
    <Info name="Training events" value="122709"/>
    <Info name="TrainingTime" value="7.86361905e+02"/>
    <Info name="AnalysisType" value="Classification"/>
  </GeneralInfo>
  <Options>
    <Option name="NCycles" modified="No">500</Option>
    <Option name="HiddenLayers" modified="Yes">10,5,3</Option>
    <Option name="NeuronType" modified="No">sigmoid</Option>
    <Option name="RandomSeed" modified="No">1</Option>
    <Option name="EstimatorType" modified="No">CE</Option>
    <Option name="NeuronInputType" modified="No">sum</Option>
    <Option name="V" modified="Yes">False</Option>
    <Option name="VerbosityLevel" modified="No">Default</Option>
    <Option name="VarTransform" modified="Yes">N</Option>
    <Option name="H" modified="Yes">False</Option>
    <Option name="CreateMVAPdfs" modified="No">False</Option>
    <Option name="IgnoreNegWeightsInTraining" modified="No">False</Option>
    <Option name="TrainingMethod" modified="No">BP</Option>
    <Option name="LearningRate" modified="No">2.000000e-02</Option>
    <Option name="DecayRate" modified="No">1.000000e-02</Option>
    <Option name="TestRate" modified="No">10</Option>
    <Option name="EpochMonitoring" modified="No">False</Option>
    <Option name="Sampling" modified="No">1.000000e+00</Option>
    <Option name="SamplingEpoch" modified="No">1.000000e+00</Option>
    <Option name="SamplingImportance" modified="No">1.000000e+00</Option>
    <Option name="SamplingTraining" modified="No">True</Option>
    <Option name="SamplingTesting" modified="No">False</Option>
    <Option name="ResetStep" modified="No">50</Option>
    <Option name="Tau" modified="No">3.000000e+00</Option>
    <Option name="BPMode" modified="No">sequential</Option>
    <Option name="BatchSize" modified="No">-1</Option>
    <Option name="ConvergenceImprove" modified="No">1.000000e-30</Option>
    <Option name="ConvergenceTests" modified="No">-1</Option>
    <Option name="UseRegulator" modified="No">False</Option>
    <Option name="UpdateLimit" modified="No">10000</Option>
    <Option name="CalculateErrors" modified="No">False</Option>
    <Option name="WeightRange" modified="No">1.000000e+00</Option>
  </Options>
  <Variables NVar="12">
    <Variable VarIndex="0" Expression="lepm" Label="lepm" Title="M_{ll}" Unit="GeV" Internal="lepm" Type="F" Min="8.97169876e+00" Max="1.78056750e+03"/>
    <Variable VarIndex="1" Expression="mtone" Label="mtone" Title="MT(MET,l1)" Unit="" Internal="mtone" Type="F" Min="8.41568050e-04" Max="1.87391541e+03"/>
    <Variable VarIndex="2" Expression="mttwo" Label="mttwo" Title="MT(MET,l2)" Unit="" Internal="mttwo" Type="F" Min="1.20025012e-03" Max="9.74205627e+02"/>
    <Variable VarIndex="3" Expression="leponept" Label="leponept" Title="pT_{l1}" Unit="" Internal="leponept" Type="F" Min="3.00000381e+01" Max="9.46109558e+02"/>
    <Variable VarIndex="4" Expression="leptwopt" Label="leptwopt" Title="pT_{l2}" Unit="" Internal="leptwopt" Type="F" Min="2.00001106e+01" Max="7.81578308e+02"/>
    <Variable VarIndex="5" Expression="pxivis" Label="pxivis" Title="p^{vis}_{#xi}" Unit="" Internal="pxivis" Type="F" Min="2.20187794e-04" Max="7.58108643e+02"/>
    <Variable VarIndex="6" Expression="pxiinv" Label="pxiinv" Title="p^{inv}_{#xi}" Unit="" Internal="pxiinv" Type="F" Min="-6.56976318e+02" Max="1.10413745e+03"/>
    <Variable VarIndex="7" Expression="njets" Label="njets" Title="nJets" Unit="" Internal="njets" Type="F" Min="0.00000000e+00" Max="1.00000000e+01"/>
    <Variable VarIndex="8" Expression="lepdeltaeta" Label="lepdeltaeta" Title="#Delta#eta_{ll}" Unit="" Internal="lepdeltaeta" Type="F" Min="2.74181366e-05" Max="4.74649763e+00"/>
    <Variable VarIndex="9" Expression="lepdeltaphi" Label="lepdeltaphi" Title="#Delta#phi_{ll}" Unit="" Internal="lepdeltaphi" Type="F" Min="1.19209290e-06" Max="3.14158583e+00"/>
    <Variable VarIndex="10" Expression="leponedeltaphi" Label="leponedeltaphi" Title="#Delta#phi_{l1,ll}" Unit="" Internal="leponedeltaphi" Type="F" Min="3.57111787e-07" Max="3.14129972e+00"/>
    <Variable VarIndex="11" Expression="leptwodeltaphi" Label="leptwodeltaphi" Title="#Delta#phi_{l2,ll}" Unit="" Internal="leptwodeltaphi" Type="F" Min="8.34981108e-07" Max="3.14156342e+00"/>
  </Variables>
  <Spectators NSpec="13">
    <Spectator SpecIndex="0" Expression="leponed0" Label="leponed0" Title="D0_{l1}" Unit="" Internal="leponed0" Type="F" Min="-9.35098082e-02" Max="9.50115845e-02"/>
    <Spectator SpecIndex="1" Expression="leptwod0" Label="leptwod0" Title="D0_{l2}" Unit="" Internal="leptwod0" Type="F" Min="-1.80937499e-01" Max="1.74999997e-01"/>
    <Spectator SpecIndex="2" Expression="htdeltaphi" Label="htdeltaphi" Title="#Delta#phi_{MET,ll}" Unit="" Internal="htdeltaphi" Type="F" Min="1.25078332e-05" Max="3.14158726e+00"/>
    <Spectator SpecIndex="3" Expression="leponeiso" Label="leponeiso" Title="Iso_{l1}" Unit="" Internal="leponeiso" Type="F" Min="0.00000000e+00" Max="1.90525875e+01"/>
    <Spectator SpecIndex="4" Expression="onemetdeltaphi" Label="onemetdeltaphi" Title="#Delta#phi_{MET,l1}" Unit="" Internal="onemetdeltaphi" Type="F" Min="1.10864639e-05" Max="3.14156890e+00"/>
    <Spectator SpecIndex="5" Expression="twometdeltaphi" Label="twometdeltaphi" Title="#Delta#phi_{MET,l2}" Unit="" Internal="twometdeltaphi" Type="F" Min="1.74045563e-05" Max="3.14159179e+00"/>
    <Spectator SpecIndex="6" Expression="metdeltaphi" Label="metdeltaphi" Title="#Delta#phi_{MET,ll}" Unit="" Internal="metdeltaphi" Type="F" Min="4.16933381e-06" Max="3.14158869e+00"/>
    <Spectator SpecIndex="7" Expression="leppt" Label="leppt" Title="Pt_{ll}" Unit="GeV" Internal="leppt" Type="F" Min="2.90292725e-02" Max="9.13670410e+02"/>
    <Spectator SpecIndex="8" Expression="met" Label="met" Title="MET" Unit="GeV" Internal="met" Type="F" Min="5.51964827e-02" Max="1.10442554e+03"/>
    <Spectator SpecIndex="9" Expression="lepdeltar" Label="lepdeltar" Title="#DeltaR_{ll}" Unit="" Internal="lepdeltar" Type="F" Min="3.10627341e-01" Max="5.68903303e+00"/>
    <Spectator SpecIndex="10" Expression="fulleventweight" Label="fulleventweight" Title="fullEventWeight" Unit="" Internal="fulleventweight" Type="F" Min="-1.90560473e-04" Max="1.16636581e-03"/>
    <Spectator SpecIndex="11" Expression="eventweight" Label="eventweight" Title="eventWeight" Unit="" Internal="eventweight" Type="F" Min="-1.34224474e+00" Max="1.55497622e+00"/>
    <Spectator SpecIndex="12" Expression="eventcategory" Label="eventcategory" Title="eventCategory" Unit="" Internal="eventcategory" Type="F" Min="1.00000000e+00" Max="3.30000000e+01"/>
  </Spectators>
  <Classes NClass="2">
    <Class Name="Background" Index="0"/>
    <Class Name="Signal" Index="1"/>
  </Classes>
  <Transformations NTransformations="1">
    <Transform Name="Normalize">
      <Selection>
        <Input NInputs="12">
          <Input Type="Variable" Label="lepm" Expression="lepm"/>
          <Input Type="Variable" Label="mtone" Expression="mtone"/>
          <Input Type="Variable" Label="mttwo" Expression="mttwo"/>
          <Input Type="Variable" Label="leponept" Expression="leponept"/>
          <Input Type="Variable" Label="leptwopt" Expression="leptwopt"/>
          <Input Type="Variable" Label="pxivis" Expression="pxivis"/>
          <Input Type="Variable" Label="pxiinv" Expression="pxiinv"/>
          <Input Type="Variable" Label="njets" Expression="njets"/>
          <Input Type="Variable" Label="lepdeltaeta" Expression="lepdeltaeta"/>
          <Input Type="Variable" Label="lepdeltaphi" Expression="lepdeltaphi"/>
          <Input Type="Variable" Label="leponedeltaphi" Expression="leponedeltaphi"/>
          <Input Type="Variable" Label="leptwodeltaphi" Expression="leptwodeltaphi"/>
        </Input>
        <Output NOutputs="12">
          <Output Type="Variable" Label="lepm" Expression="lepm"/>
          <Output Type="Variable" Label="mtone" Expression="mtone"/>
          <Output Type="Variable" Label="mttwo" Expression="mttwo"/>
          <Output Type="Variable" Label="leponept" Expression="leponept"/>
          <Output Type="Variable" Label="leptwopt" Expression="leptwopt"/>
          <Output Type="Variable" Label="pxivis" Expression="pxivis"/>
          <Output Type="Variable" Label="pxiinv" Expression="pxiinv"/>
          <Output Type="Variable" Label="njets" Expression="njets"/>
          <Output Type="Variable" Label="lepdeltaeta" Expression="lepdeltaeta"/>
          <Output Type="Variable" Label="lepdeltaphi" Expression="lepdeltaphi"/>
          <Output Type="Variable" Label="leponedeltaphi" Expression="leponedeltaphi"/>
          <Output Type="Variable" Label="leptwodeltaphi" Expression="leptwodeltaphi"/>
        </Output>
      </Selection>
      <Class ClassIndex="0">
        <Ranges>
          <Range Index="0" Min="8.9716987609863281e+00" Max="1.7805675048828125e+03"/>
          <Range Index="1" Min="8.4156804950907826e-04" Max="1.8739154052734375e+03"/>
          <Range Index="2" Min="1.2002501171082258e-03" Max="9.7420562744140625e+02"/>
          <Range Index="3" Min="3.0000038146972656e+01" Max="9.4610955810546875e+02"/>
          <Range Index="4" Min="2.0000110626220703e+01" Max="7.8157830810546875e+02"/>
          <Range Index="5" Min="2.2018779418431222e-04" Max="7.5810864257812500e+02"/>
          <Range Index="6" Min="-6.5697631835937500e+02" Max="1.1041374511718750e+03"/>
          <Range Index="7" Min="0.0000000000000000e+00" Max="1.0000000000000000e+01"/>
          <Range Index="8" Min="2.7418136596679688e-05" Max="4.7464976310729980e+00"/>
          <Range Index="9" Min="1.1920928955078125e-06" Max="3.1415858268737793e+00"/>
          <Range Index="10" Min="3.5711178725250647e-07" Max="3.1412997245788574e+00"/>
          <Range Index="11" Min="8.3498110825530603e-07" Max="3.1415634155273438e+00"/>
        </Ranges>
      </Class>
      <Class ClassIndex="1">
        <Ranges>
          <Range Index="0" Min="1.3099925041198730e+01" Max="3.6252423095703125e+02"/>
          <Range Index="1" Min="1.2025155127048492e-01" Max="2.6170288085937500e+02"/>
          <Range Index="2" Min="1.7664670944213867e-01" Max="1.3544706726074219e+02"/>
          <Range Index="3" Min="3.0028228759765625e+01" Max="2.2665237426757812e+02"/>
          <Range Index="4" Min="2.0010280609130859e+01" Max="1.3769609069824219e+02"/>
          <Range Index="5" Min="7.5417971238493919e-03" Max="1.7691554260253906e+02"/>
          <Range Index="6" Min="-5.9768985748291016e+01" Max="1.3813331604003906e+02"/>
          <Range Index="7" Min="0.0000000000000000e+00" Max="4.0000000000000000e+00"/>
          <Range Index="8" Min="3.9257556200027466e-03" Max="2.1467692852020264e+00"/>
          <Range Index="9" Min="1.7969608306884766e-02" Max="3.1413989067077637e+00"/>
          <Range Index="10" Min="1.9010760297533125e-04" Max="3.1142995357513428e+00"/>
          <Range Index="11" Min="1.2745924293994904e-02" Max="3.1412088871002197e+00"/>
        </Ranges>
      </Class>
      <Class ClassIndex="2">
        <Ranges>
          <Range Index="0" Min="8.9716987609863281e+00" Max="1.7805675048828125e+03"/>
          <Range Index="1" Min="8.4156804950907826e-04" Max="1.8739154052734375e+03"/>
          <Range Index="2" Min="1.2002501171082258e-03" Max="9.7420562744140625e+02"/>
          <Range Index="3" Min="3.0000038146972656e+01" Max="9.4610955810546875e+02"/>
          <Range Index="4" Min="2.0000110626220703e+01" Max="7.8157830810546875e+02"/>
          <Range Index="5" Min="2.2018779418431222e-04" Max="7.5810864257812500e+02"/>
          <Range Index="6" Min="-6.5697631835937500e+02" Max="1.1041374511718750e+03"/>
          <Range Index="7" Min="0.0000000000000000e+00" Max="1.0000000000000000e+01"/>
          <Range Index="8" Min="2.7418136596679688e-05" Max="4.7464976310729980e+00"/>
          <Range Index="9" Min="1.1920928955078125e-06" Max="3.1415858268737793e+00"/>
          <Range Index="10" Min="3.5711178725250647e-07" Max="3.1412997245788574e+00"/>
          <Range Index="11" Min="8.3498110825530603e-07" Max="3.1415634155273438e+00"/>
        </Ranges>
      </Class>
    </Transform>
  </Transformations>
  <MVAPdfs/>
  <Weights>
    <Layout NLayers="5">
      <Layer Index="0" NNeurons="13">
        <Neuron NSynapses="10">
          2.9452579237336467e+00 1.1472342170163369e+01 4.2217672620819311e+00 2.1599477981785484e+00 -1.7144328225426559e+00 -9.8726080217042238e+00 -7.2928986570740886e+00 3.7929334709156941e+00 4.9718162623531761e-03 -8.9757302240410635e+00 
        </Neuron>
        <Neuron NSynapses="10">
          -2.8589373047312527e-01 6.1865540595438766e+00 2.5554976717114219e+00 -2.5869280385804657e-03 3.3780171687787258e-01 -2.7681635025116198e+00 -1.0494483746302940e+01 3.6731677866484640e+00 1.3739875560801125e+00 -6.5742389810922992e+00 
        </Neuron>
        <Neuron NSynapses="10">
          3.9026933075664521e+00 1.6466890266107559e+00 2.8876428891180583e+00 4.9630735021583550e-01 -8.0538513878424078e-01 -8.6833654945714311e+00 -7.4164421668721117e+00 7.6682281929192730e-01 3.9702231316286019e-01 -5.3654115286682069e+00 
        </Neuron>
        <Neuron NSynapses="10">
          1.8069574204230323e+00 1.5054436536421735e+01 3.6766435607459487e+00 2.6006215479063199e-01 1.7345733718048049e+00 -1.2800774274595790e+01 -1.1854066114468877e+01 4.1849625120500233e+00 2.5531722692706516e-01 -8.1415674790858983e+00 
        </Neuron>
        <Neuron NSynapses="10">
          2.6422939414363633e-01 9.2598094583369477e+00 5.2758627500365041e+00 1.6356208575619839e+00 4.2054402793605122e-01 9.2019823900643765e+00 1.2581649725762086e+01 1.8830255168705377e+00 1.9927162369374234e+00 -6.9849390632780262e+00 
        </Neuron>
        <Neuron NSynapses="10">
          -1.0425054100013098e-01 -2.2572910160674029e+00 3.3418269047396386e-02 1.6408860900730819e+00 1.6573628234158619e+00 1.4238063770116764e+01 5.1096164385201899e+00 1.7357625389592184e+00 3.2348773340314558e+00 -3.9106554298408489e+00 
        </Neuron>
        <Neuron NSynapses="10">
          -5.2874750095527343e+00 5.1771220093009862e-01 8.0915142532462769e-01 8.1147134369916774e-01 9.3690516322750950e-01 2.3166074692413211e+01 1.5554715972939276e+01 -1.0422170947178693e+00 2.5271378919614246e-01 -3.4148492579560066e+00 
        </Neuron>
        <Neuron NSynapses="10">
          -2.8595398025587500e+00 -1.0978595953519161e+01 5.5431625889688396e-01 1.4054158178432681e+00 5.9540550819303091e+00 -3.7789657774571417e+01 -3.5268561271076599e+01 2.7055406425929336e+00 5.3188110066160439e+00 -1.7723981865915146e+00 
        </Neuron>
        <Neuron NSynapses="10">
          1.2488753073034434e+01 -4.6002022794575614e-01 3.8112454956235131e-01 -5.7452652944547822e-01 -1.8380556245271056e+00 -7.7818370071450449e+00 -3.2389636186004147e+01 2.1987453486966335e+00 3.7370261135691720e+00 -7.7207573234023630e-01 
        </Neuron>
        <Neuron NSynapses="10">
          2.9858961064184077e+00 2.6705017596294564e+01 8.0260101452882999e+00 -1.4213290245149073e+00 -1.4172024046412048e+01 2.5195985888402539e+01 2.5188071984622152e+01 -1.4672897823093201e+01 -9.4153052337688017e+00 -1.0674151373494295e+01 
        </Neuron>
        <Neuron NSynapses="10">
          2.8291820569826431e-01 1.3567791734296502e+01 3.2058005416667603e+00 2.0907448762038512e+00 -3.6447919015626602e+00 4.5646773071580576e+01 5.4167555150497293e+01 -1.1274469826448270e+00 -9.3089487351025249e-03 -4.6156087433047226e+00 
        </Neuron>
        <Neuron NSynapses="10">
          -5.9314497035995286e+00 1.3382495746276728e+01 7.8930487580081445e+00 7.6172481273801429e-01 -1.2626190230515068e+01 2.3073958541427846e+01 -4.4625280079051732e+00 -1.2868359778814179e+01 -7.5448052325640580e+00 -1.4719294549735361e+01 
        </Neuron>
        <Neuron NSynapses="10">
          3.5437825312887887e+00 -1.3889663737182028e+00 -4.0392674529023358e+00 1.2644516215170614e+00 1.1352624360198762e+00 -4.1697967745658296e+01 -2.4589339842748107e+01 -7.5321665585088693e-01 -1.4161834767245116e+00 8.8853336962338680e+00 
        </Neuron>
      </Layer>
      <Layer Index="1" NNeurons="11">
        <Neuron NSynapses="5">
          -2.3486381220259545e+00 -5.7417109495592129e+00 -5.9614030886787237e+00 -7.3333716620352074e-01 1.1138706357033719e+01 
        </Neuron>
        <Neuron NSynapses="5">
          1.4105469576952450e+00 4.1654101310790557e+00 -1.1263483250962645e+01 -7.3896963183810263e+00 4.4152438178832387e+00 
        </Neuron>
        <Neuron NSynapses="5">
          4.4933540445816407e+00 2.0194737634340441e+00 -3.1773687725341815e+00 -5.9909990155199444e-01 -4.9281319094515705e+00 
        </Neuron>
        <Neuron NSynapses="5">
          1.3791067729398723e+00 9.5633354559972050e-01 -5.9892133828127281e-01 -1.0753189458197901e-01 3.0739748709180253e-01 
        </Neuron>
        <Neuron NSynapses="5">
          -4.5116632336122207e+00 -5.7250034272036157e+00 4.7429852503159378e+00 6.5553929591780404e+00 -2.5779535043728532e+00 
        </Neuron>
        <Neuron NSynapses="5">
          1.8389420095632156e+00 1.5967486218738173e+01 1.1303399959438897e+01 -5.3663204354737006e+00 -3.2704910312909030e+00 
        </Neuron>
        <Neuron NSynapses="5">
          3.5350878047136596e+00 1.9589398399478185e+01 -7.3382832611083488e+00 -1.4852622095827510e+01 -9.2462204867845905e+00 
        </Neuron>
        <Neuron NSynapses="5">
          -5.9563366124600341e+00 -2.9591163135567413e+00 2.3731213154656725e+00 2.1677164928786254e+00 -2.9416333887610144e+00 
        </Neuron>
        <Neuron NSynapses="5">
          -2.9046227640112448e+00 -7.4493249387482461e+00 2.5170880411160343e+00 4.8618821829263199e+00 4.7987814100613213e-01 
        </Neuron>
        <Neuron NSynapses="5">
          -1.0116786963305650e+01 -1.0777367551202872e+01 2.7509483649924366e-01 6.1554610296562542e+00 3.9836359758095113e-01 
        </Neuron>
        <Neuron NSynapses="5">
          -4.0026891477810116e+00 -1.0858784533297825e+01 -3.7754333530709476e+00 -1.0950854530177188e-01 -5.2375570959671502e-01 
        </Neuron>
      </Layer>
      <Layer Index="2" NNeurons="6">
        <Neuron NSynapses="3">
          -4.0445139482121490e+00 3.2753669198702634e-01 6.2630216722231840e+00 
        </Neuron>
        <Neuron NSynapses="3">
          -8.2499251116237815e+00 -2.4386621503038728e+00 -4.0131456856045866e-01 
        </Neuron>
        <Neuron NSynapses="3">
          1.5099476006759236e+00 -7.2349387068563675e-01 -1.0255334997300524e+01 
        </Neuron>
        <Neuron NSynapses="3">
          5.0513608045128882e+00 -2.2720102079024191e+00 1.1281652731094149e-01 
        </Neuron>
        <Neuron NSynapses="3">
          6.7715702961334570e+00 7.7276764506357551e+00 -3.0932605207842547e+00 
        </Neuron>
        <Neuron NSynapses="3">
          -1.6620390890887045e+00 -2.7135710164931188e+00 3.6114849692914399e+00 
        </Neuron>
      </Layer>
      <Layer Index="3" NNeurons="4">
        <Neuron NSynapses="1">
          -2.9791696252620508e+00 
        </Neuron>
        <Neuron NSynapses="1">
          -6.1054371848861155e+00 
        </Neuron>
        <Neuron NSynapses="1">
          -2.0012102236886884e+00 
        </Neuron>
        <Neuron NSynapses="1">
          1.7111697467456159e+00 
        </Neuron>
      </Layer>
      <Layer Index="4" NNeurons="1">
        <Neuron NSynapses="0"/>
      </Layer>
    </Layout>
  </Weights>
</MethodSetup>
