<?xml version="1.0"?>
<MethodSetup Method="TMlpANN::TMlpANN">
  <GeneralInfo>
    <Info name="TMVA Release" value="4.2.1 [262657]"/>
    <Info name="ROOT Release" value="6.12/07 [396295]"/>
    <Info name="Creator" value="mmackenz"/>
    <Info name="Date" value="Sun Mar 14 14:59:03 2021"/>
    <Info name="Host" value="Linux cmsbuild92.cern.ch 2.6.32-696.30.1.el6.x86_64 #1 SMP Tue May 22 06:09:36 CEST 2018 x86_64 x86_64 x86_64 GNU/Linux"/>
    <Info name="Dir" value="/uscms_data/d3/mmackenz/ZEMu/CMSSW_10_2_18/src/StandardModel/CLFVAnalysis_dev/tmva_training/training_background_ztautau_higgs_nano_mutau_2016_2017_2018_8"/>
    <Info name="Training events" value="944464"/>
    <Info name="TrainingTime" value="5.06434918e+03"/>
    <Info name="AnalysisType" value="Classification"/>
  </GeneralInfo>
  <Options>
    <Option name="V" modified="Yes">False</Option>
    <Option name="VerbosityLevel" modified="No">Default</Option>
    <Option name="VarTransform" modified="No">None</Option>
    <Option name="H" modified="Yes">False</Option>
    <Option name="CreateMVAPdfs" modified="No">False</Option>
    <Option name="IgnoreNegWeightsInTraining" modified="No">False</Option>
    <Option name="NCycles" modified="Yes">200</Option>
    <Option name="HiddenLayers" modified="Yes">N+1,N</Option>
    <Option name="ValidationFraction" modified="Yes">3.000000e-01</Option>
    <Option name="LearningMethod" modified="Yes">bfgs</Option>
  </Options>
  <Variables NVar="13">
    <Variable VarIndex="0" Expression="lepm" Label="lepm" Title="M_{ll}" Unit="GeV" Internal="lepm" Type="F" Min="5.10001945e+01" Max="1.69999023e+02"/>
    <Variable VarIndex="1" Expression="mtone" Label="mtone" Title="MT(MET,l1)" Unit="" Internal="mtone" Type="F" Min="0.00000000e+00" Max="7.54168152e+02"/>
    <Variable VarIndex="2" Expression="mttwo" Label="mttwo" Title="MT(MET,l2)" Unit="" Internal="mttwo" Type="F" Min="0.00000000e+00" Max="9.96681824e+02"/>
    <Variable VarIndex="3" Expression="onemetdeltaphi" Label="onemetdeltaphi" Title="#Delta#phi_{MET,l1}" Unit="" Internal="onemetdeltaphi" Type="F" Min="0.00000000e+00" Max="3.14158368e+00"/>
    <Variable VarIndex="4" Expression="twometdeltaphi" Label="twometdeltaphi" Title="#Delta#phi_{MET,l2}" Unit="" Internal="twometdeltaphi" Type="F" Min="0.00000000e+00" Max="3.14158368e+00"/>
    <Variable VarIndex="5" Expression="leponept" Label="leponept" Title="pT_{l1}" Unit="GeV" Internal="leponept" Type="F" Min="2.50000668e+01" Max="5.06766937e+02"/>
    <Variable VarIndex="6" Expression="leptwopt" Label="leptwopt" Title="pT_{l2}" Unit="GeV" Internal="leptwopt" Type="F" Min="2.00000019e+01" Max="4.70037506e+02"/>
    <Variable VarIndex="7" Expression="leppt" Label="leppt" Title="pT_{ll}" Unit="GeV" Internal="leppt" Type="F" Min="2.56866645e-02" Max="5.95624207e+02"/>
    <Variable VarIndex="8" Expression="lepdeltaphi" Label="lepdeltaphi" Title="#Delta#phi_{ll}" Unit="" Internal="lepdeltaphi" Type="F" Min="0.00000000e+00" Max="3.14159131e+00"/>
    <Variable VarIndex="9" Expression="deltaalphah2" Label="deltaalphah2" Title="#Delta#alpha" Unit="" Internal="deltaalphah2" Type="F" Min="-1.97785816e+01" Max="5.72587061e+00"/>
    <Variable VarIndex="10" Expression="lepmestimate" Label="lepmestimate" Title="M_{ll}^{Coll}" Unit="GeV" Internal="lepmestimate" Type="F" Min="5.10002098e+01" Max="6.40462952e+02"/>
    <Variable VarIndex="11" Expression="jetpt" Label="jetpt" Title="pT_{Jet}" Unit="" Internal="jetpt" Type="F" Min="0.00000000e+00" Max="2.13000000e+03"/>
    <Variable VarIndex="12" Expression="met" Label="met" Title="MET" Unit="GeV" Internal="met" Type="F" Min="2.31857523e-02" Max="1.11002551e+03"/>
  </Variables>
  <Spectators NSpec="21">
    <Spectator SpecIndex="0" Expression="fulleventweight" Label="fulleventweight" Title="fullEventWeight" Unit="" Internal="fulleventweight" Type="F" Min="-3.03313776e-04" Max="5.96412301e-01"/>
    <Spectator SpecIndex="1" Expression="fulleventweightlum" Label="fulleventweightlum" Title="fullEventWeightLum" Unit="" Internal="fulleventweightlum" Type="F" Min="-1.25814552e+01" Max="4.64152145e+01"/>
    <Spectator SpecIndex="2" Expression="eventweight" Label="eventweight" Title="eventWeight" Unit="" Internal="eventweight" Type="F" Min="-5.95804644e+00" Max="2.22600422e+01"/>
    <Spectator SpecIndex="3" Expression="eventcategory" Label="eventcategory" Title="eventCategory" Unit="" Internal="eventcategory" Type="F" Min="1.00000000e+00" Max="6.70000000e+01"/>
    <Spectator SpecIndex="4" Expression="issignal" Label="issignal" Title="isSignal" Unit="" Internal="issignal" Type="F" Min="-1.00000000e+00" Max="1.00000000e+00"/>
    <Spectator SpecIndex="5" Expression="lepdeltaeta" Label="lepdeltaeta" Title="#Delta#eta_{ll}" Unit="" Internal="lepdeltaeta" Type="F" Min="0.00000000e+00" Max="4.06396484e+00"/>
    <Spectator SpecIndex="6" Expression="metdeltaphi" Label="metdeltaphi" Title="#Delta#phi_{MET,ll}" Unit="" Internal="metdeltaphi" Type="F" Min="1.67505459e-05" Max="3.14159083e+00"/>
    <Spectator SpecIndex="7" Expression="pxivis" Label="pxivis" Title="p^{vis}_{#xi}" Unit="" Internal="pxivis" Type="F" Min="3.75112468e-05" Max="5.91231018e+02"/>
    <Spectator SpecIndex="8" Expression="pxiinv" Label="pxiinv" Title="p^{inv}_{#xi}" Unit="" Internal="pxiinv" Type="F" Min="-6.70258057e+02" Max="1.08135291e+03"/>
    <Spectator SpecIndex="9" Expression="leptwoidone" Label="leptwoidone" Title="#tau anti-electron ID" Unit="" Internal="leptwoidone" Type="F" Min="1.50000000e+01" Max="2.55000000e+02"/>
    <Spectator SpecIndex="10" Expression="leptwoidtwo" Label="leptwoidtwo" Title="#tau anti-muon ID" Unit="" Internal="leptwoidtwo" Type="F" Min="1.50000000e+01" Max="1.50000000e+01"/>
    <Spectator SpecIndex="11" Expression="leptwoidthree" Label="leptwoidthree" Title="#tau anti-jet ID" Unit="" Internal="leptwoidthree" Type="F" Min="7.00000000e+00" Max="2.55000000e+02"/>
    <Spectator SpecIndex="12" Expression="leponedeltaphi" Label="leponedeltaphi" Title="#Delta#phi_{l1,ll}" Unit="" Internal="leponedeltaphi" Type="F" Min="0.00000000e+00" Max="3.14157486e+00"/>
    <Spectator SpecIndex="13" Expression="leptwodeltaphi" Label="leptwodeltaphi" Title="#Delta#phi_{l2,ll}" Unit="" Internal="leptwodeltaphi" Type="F" Min="0.00000000e+00" Max="3.14158821e+00"/>
    <Spectator SpecIndex="14" Expression="leponed0" Label="leponed0" Title="D0_{l1}" Unit="" Internal="leponed0" Type="F" Min="-1.58818668e-23" Max="-1.58818668e-23"/>
    <Spectator SpecIndex="15" Expression="leptwod0" Label="leptwod0" Title="D0_{l2}" Unit="" Internal="leptwod0" Type="F" Min="-1.58818668e-23" Max="-1.58818668e-23"/>
    <Spectator SpecIndex="16" Expression="htdeltaphi" Label="htdeltaphi" Title="#Delta#phi_{hT,ll}" Unit="" Internal="htdeltaphi" Type="F" Min="2.82328119e-06" Max="3.14159155e+00"/>
    <Spectator SpecIndex="17" Expression="ht" Label="ht" Title="pT(#Sigma #vec{P}_{Jet})" Unit="" Internal="ht" Type="F" Min="-1.58818668e-23" Max="-1.58818668e-23"/>
    <Spectator SpecIndex="18" Expression="htsum" Label="htsum" Title="#Sigma pT_{Jet}" Unit="" Internal="htsum" Type="F" Min="-1.58818668e-23" Max="-1.58818668e-23"/>
    <Spectator SpecIndex="19" Expression="leponeiso" Label="leponeiso" Title="Iso_{l1}" Unit="" Internal="leponeiso" Type="F" Min="-1.58818668e-23" Max="-1.58818668e-23"/>
    <Spectator SpecIndex="20" Expression="lepdeltar" Label="lepdeltar" Title="#DeltaR_{ll}" Unit="" Internal="lepdeltar" Type="F" Min="3.90595496e-01" Max="4.99456024e+00"/>
  </Spectators>
  <Classes NClass="2">
    <Class Name="Background" Index="0"/>
    <Class Name="Signal" Index="1"/>
  </Classes>
  <Transformations NTransformations="0"/>
  <MVAPdfs/>
  <Weights>
    <Architecture BuildOptions="@lepm,@mtone,@mttwo,@onemetdeltaphi,@twometdeltaphi,@leponept,@leptwopt,@leppt,@lepdeltaphi,@deltaalphah2,@lepmestimate,@jetpt,@met:14:13:type"/>
    <input>
      28.2396 86.7735 36.8003 59.2044 31.3983 45.0375 0.939085 1.85376 0.927639 1.66231 20.1061 46.2988 13.8337 31.698 26.8688 37.608 0.759284 2.28221 1.72714 1.08571 41.6098 101.285 44.2509 27.4192 28.6153 40.1619 
    </input>
    <output>
      1 0 
    </output>
    <neurons>
      -0.499125 0.203153 -0.413646 -0.15502 0.0456754 0.282147 0.456649 0.103341 -0.20639 -0.337269 -0.499068 0.445736 -0.191542 -1.29817 -1.05458 0.488999 -0.45147 -0.516416 0.347354 0.289911 0.745944 0.981263 -0.466114 -0.548957 -2.47402 -1.55237 1.30767 -0.229562 0.512945 0.577941 -0.836426 -0.790524 1.3175 -0.112469 -0.135134 0.0460892 -0.217014 -0.322219 0.322001 -0.404491 0.0551017 
    </neurons>
    <synapses>
      -1.78143 -0.310952 0.809511 -0.132849 -0.457707 -1.19807 0.403863 -0.967196 -0.837162 1.06691 -0.583404 -1.07108 -0.744405 -0.664868 -0.0351444 -0.413041 0.487082 -0.305823 0.671688 0.0961484 1.33525 -0.672416 0.301954 -0.282402 -0.175236 -0.158454 2.41719 -0.0291164 -0.26817 0.216271 -0.255797 -0.668007 -0.600651 1.10536 0.474622 -0.0767556 2.37532 0.0400391 0.299459 -2.34864 0.0429723 -0.527242 -0.111445 -0.834805 -0.567552 -0.347178 -0.180289 -0.228111 0.986298 -0.0390528 0.533131 0.194742 0.391357 -0.788444 -0.13739 -0.539686 0.415992 0.601824 0.331483 0.35993 0.530486 -0.138572 -0.703074 0.0127189 -0.0099236 0.0162667 -0.594797 0.98093 -0.457834 0.684455 -0.691891 -0.352555 -0.749391 -0.640134 0.549407 -1.06832 -0.236107 -0.0434285 0.00553179 0.425447 -0.458023 0.0884044 0.2423 0.454299 0.334199 1.48479 -0.924127 -0.589655 1.55769 0.106509 -0.80125 -1.81244 0.013666 -0.52661 -0.572856 -0.583944 0.402686 0.522645 0.320642 0.415808 0.633545 -0.090557 -0.266072 -0.889933 -1.27121 0.175769 1.15122 0.65409 0.565977 -1.02913 -2.35828 0.198944 -1.01276 0.497071 -0.750401 -0.742002 -0.868293 1.85138 -0.358598 -0.695454 0.0823307 -0.0411672 1.11455 0.460217 -0.0673109 0.0373935 0.600516 0.279369 -0.0234061 0.668596 1.72488 0.0105937 0.255113 0.144101 0.725656 -0.0684919 -0.633395 1.59715 -0.1662 -0.665478 0.976229 0.797242 -0.558613 1.67513 -1.2083 -0.604231 0.0835371 -0.0241037 -0.0175742 -0.14169 0.779657 0.252921 0.599697 0.80407 0.313854 1.12033 0.957557 0.469856 -0.161182 -0.0535005 -0.259332 -0.36582 0.25696 -0.772938 -0.201417 -0.778081 0.738088 -0.48257 0.227358 -1.16181 -0.588835 -1.22018 -0.949225 0.919374 0.471938 1.30162 0.231432 0.0848521 1.00065 -0.830226 0.00544474 -1.20434 0.418853 0.0533302 -0.343235 0.010835 0.00707201 -0.0462353 0.521883 0.363936 0.31996 0.171967 -0.134402 0.0821134 0.548115 0.30951 0.303978 0.323651 -0.60593 0.584759 -0.254329 0.322511 -0.232492 0.0238975 0.196909 0.441811 -0.219152 0.120462 -0.11078 0.491703 0.724214 0.857593 -0.492223 -0.29302 -0.775899 0.309334 -0.333836 1.00527 -0.922866 0.609994 -0.74532 -0.825971 -0.278133 0.754964 0.74389 -0.371639 1.11378 -0.494698 -0.157518 -0.124463 0.133763 -1.07614 -0.581199 0.878435 0.047921 0.346308 -0.202493 -0.784463 -1.1673 0.111522 0.578222 -0.776135 0.560947 -0.331876 0.0720472 -0.758913 0.0176007 -0.737584 0.536974 0.200777 -0.0489252 -0.413382 2.31413 -0.903801 -3.8207 1.59939 1.82958 -0.580904 0.883738 -2.17086 1.4216 -1.33786 0.749563 2.59888 2.41293 -1.64583 -0.539771 -0.593733 -0.322855 -0.415199 -0.453266 -0.0418153 -0.109538 -0.068579 -0.0570976 0.0902198 -0.470894 -0.476624 -0.135067 -0.284097 -0.414993 -0.11244 -0.0717889 0.136702 -0.213228 0.266665 -0.0491046 -0.320322 0.718945 -0.267294 0.209672 0.0181417 -0.0169763 0.276821 -0.270007 0.171815 1.34201 -0.0252882 -0.493162 0.435575 -0.409049 0.694996 -0.331241 -0.269236 -1.02624 -0.268685 -0.111478 0.0250977 -0.116704 -0.276697 0.396351 0.425971 -0.0829 0.0660733 0.401101 0.272965 -0.170058 0.44616 -0.0541641 -0.13665 0.0843536 0.314756 0.620899 -0.493277 -0.157571 1.13407 0.810736 0.536221 -0.000897639 -0.78082 1.72662 -0.433279 0.118939 1.41582 0.549995 -1.084 -0.318934 -0.177684 0.0757782 -0.322686 0.53446 -0.294039 -0.286471 -0.246813 0.264018 0.0415804 -0.412095 0.188541 0.42362 0.47995 -0.201296 -0.0597844 0.0681102 -0.333762 0.0351692 -0.0113222 0.657431 -0.0845663 -0.273894 0.262742 0.243432 -0.274017 -0.0751266 -0.224461 0.25211 0.3655 0.64658 0.8433 -0.782172 -2.04317 0.609094 -0.128296 -1.14565 0.207296 1.31172 0.162879 0.272477 
    </synapses>
  </Weights>
</MethodSetup>
