<?xml version="1.0"?>
<MethodSetup Method="MLP::MLP_MM">
  <GeneralInfo>
    <Info name="TMVA Release" value="4.2.1 [262657]"/>
    <Info name="ROOT Release" value="6.06/01 [394753]"/>
    <Info name="Creator" value="mmackenz"/>
    <Info name="Date" value="Tue Dec 10 13:31:10 2019"/>
    <Info name="Host" value="Linux vocms0315.cern.ch 2.6.32-573.26.1.el6.x86_64 #1 SMP Wed May 4 09:23:05 CEST 2016 x86_64 x86_64 x86_64 GNU/Linux"/>
    <Info name="Dir" value="/uscms_data/d3/mmackenz/CMSSW_8_0_20/src/BLT/BLTAnalysis/tmva_training/training_background_ztautau_WJets_mutau_8"/>
    <Info name="Training events" value="23058"/>
    <Info name="TrainingTime" value="1.50840715e+02"/>
    <Info name="AnalysisType" value="Classification"/>
  </GeneralInfo>
  <Options>
    <Option name="NCycles" modified="No">500</Option>
    <Option name="HiddenLayers" modified="Yes">10,5,3</Option>
    <Option name="NeuronType" modified="No">sigmoid</Option>
    <Option name="RandomSeed" modified="No">1</Option>
    <Option name="EstimatorType" modified="No">CE</Option>
    <Option name="NeuronInputType" modified="No">sum</Option>
    <Option name="V" modified="Yes">False</Option>
    <Option name="VerbosityLevel" modified="No">Default</Option>
    <Option name="VarTransform" modified="Yes">N</Option>
    <Option name="H" modified="Yes">False</Option>
    <Option name="CreateMVAPdfs" modified="No">False</Option>
    <Option name="IgnoreNegWeightsInTraining" modified="No">False</Option>
    <Option name="TrainingMethod" modified="No">BP</Option>
    <Option name="LearningRate" modified="No">2.000000e-02</Option>
    <Option name="DecayRate" modified="No">1.000000e-02</Option>
    <Option name="TestRate" modified="No">10</Option>
    <Option name="EpochMonitoring" modified="No">False</Option>
    <Option name="Sampling" modified="No">1.000000e+00</Option>
    <Option name="SamplingEpoch" modified="No">1.000000e+00</Option>
    <Option name="SamplingImportance" modified="No">1.000000e+00</Option>
    <Option name="SamplingTraining" modified="No">True</Option>
    <Option name="SamplingTesting" modified="No">False</Option>
    <Option name="ResetStep" modified="No">50</Option>
    <Option name="Tau" modified="No">3.000000e+00</Option>
    <Option name="BPMode" modified="No">sequential</Option>
    <Option name="BatchSize" modified="No">-1</Option>
    <Option name="ConvergenceImprove" modified="No">1.000000e-30</Option>
    <Option name="ConvergenceTests" modified="No">-1</Option>
    <Option name="UseRegulator" modified="No">False</Option>
    <Option name="UpdateLimit" modified="No">10000</Option>
    <Option name="CalculateErrors" modified="No">False</Option>
    <Option name="WeightRange" modified="No">1.000000e+00</Option>
  </Options>
  <Variables NVar="12">
    <Variable VarIndex="0" Expression="lepm" Label="lepm" Title="M_{ll}" Unit="GeV" Internal="lepm" Type="F" Min="9.40123653e+00" Max="6.21487915e+02"/>
    <Variable VarIndex="1" Expression="mtone" Label="mtone" Title="MT(MET,l1)" Unit="" Internal="mtone" Type="F" Min="1.80821288e-02" Max="2.68929291e+02"/>
    <Variable VarIndex="2" Expression="mttwo" Label="mttwo" Title="MT(MET,l2)" Unit="" Internal="mttwo" Type="F" Min="3.67084332e-03" Max="4.15867157e+02"/>
    <Variable VarIndex="3" Expression="leponept" Label="leponept" Title="pT_{l1}" Unit="" Internal="leponept" Type="F" Min="2.50009365e+01" Max="3.31314209e+02"/>
    <Variable VarIndex="4" Expression="leptwopt" Label="leptwopt" Title="pT_{l2}" Unit="" Internal="leptwopt" Type="F" Min="2.00005856e+01" Max="5.94645142e+02"/>
    <Variable VarIndex="5" Expression="pxivis" Label="pxivis" Title="p^{vis}_{#xi}" Unit="" Internal="pxivis" Type="F" Min="1.14822609e-03" Max="4.17696777e+02"/>
    <Variable VarIndex="6" Expression="pxiinv" Label="pxiinv" Title="p^{inv}_{#xi}" Unit="" Internal="pxiinv" Type="F" Min="-1.81539764e+02" Max="3.87400085e+02"/>
    <Variable VarIndex="7" Expression="njets" Label="njets" Title="nJets" Unit="" Internal="njets" Type="F" Min="0.00000000e+00" Max="8.00000000e+00"/>
    <Variable VarIndex="8" Expression="lepdeltaeta" Label="lepdeltaeta" Title="#Delta#eta_{ll}" Unit="" Internal="lepdeltaeta" Type="F" Min="4.95910645e-05" Max="4.60445213e+00"/>
    <Variable VarIndex="9" Expression="lepdeltaphi" Label="lepdeltaphi" Title="#Delta#phi_{ll}" Unit="" Internal="lepdeltaphi" Type="F" Min="2.32517719e-04" Max="3.14155674e+00"/>
    <Variable VarIndex="10" Expression="leponedeltaphi" Label="leponedeltaphi" Title="#Delta#phi_{l1,ll}" Unit="" Internal="leponedeltaphi" Type="F" Min="6.53663810e-05" Max="3.13802099e+00"/>
    <Variable VarIndex="11" Expression="leptwodeltaphi" Label="leptwodeltaphi" Title="#Delta#phi_{l2,ll}" Unit="" Internal="leptwodeltaphi" Type="F" Min="1.48766980e-04" Max="3.14137006e+00"/>
  </Variables>
  <Spectators NSpec="13">
    <Spectator SpecIndex="0" Expression="leponed0" Label="leponed0" Title="D0_{l1}" Unit="" Internal="leponed0" Type="F" Min="-6.17004447e-02" Max="6.15163222e-02"/>
    <Spectator SpecIndex="1" Expression="leptwod0" Label="leptwod0" Title="D0_{l2}" Unit="" Internal="leptwod0" Type="F" Min="-2.33125001e-01" Max="1.75156251e-01"/>
    <Spectator SpecIndex="2" Expression="htdeltaphi" Label="htdeltaphi" Title="#Delta#phi_{MET,ll}" Unit="" Internal="htdeltaphi" Type="F" Min="6.90370434e-05" Max="3.14150929e+00"/>
    <Spectator SpecIndex="3" Expression="leponeiso" Label="leponeiso" Title="Iso_{l1}" Unit="" Internal="leponeiso" Type="F" Min="0.00000000e+00" Max="2.30105362e+01"/>
    <Spectator SpecIndex="4" Expression="onemetdeltaphi" Label="onemetdeltaphi" Title="#Delta#phi_{MET,l1}" Unit="" Internal="onemetdeltaphi" Type="F" Min="8.57353210e-04" Max="3.14144111e+00"/>
    <Spectator SpecIndex="5" Expression="twometdeltaphi" Label="twometdeltaphi" Title="#Delta#phi_{MET,l2}" Unit="" Internal="twometdeltaphi" Type="F" Min="9.70363617e-05" Max="3.14157534e+00"/>
    <Spectator SpecIndex="6" Expression="metdeltaphi" Label="metdeltaphi" Title="#Delta#phi_{MET,ll}" Unit="" Internal="metdeltaphi" Type="F" Min="5.17756052e-06" Max="3.14153504e+00"/>
    <Spectator SpecIndex="7" Expression="leppt" Label="leppt" Title="Pt_{ll}" Unit="GeV" Internal="leppt" Type="F" Min="9.31768492e-03" Max="5.74365173e+02"/>
    <Spectator SpecIndex="8" Expression="met" Label="met" Title="MET" Unit="GeV" Internal="met" Type="F" Min="1.16536096e-01" Max="4.05499176e+02"/>
    <Spectator SpecIndex="9" Expression="lepdeltar" Label="lepdeltar" Title="#DeltaR_{ll}" Unit="" Internal="lepdeltar" Type="F" Min="3.86926502e-01" Max="5.39723349e+00"/>
    <Spectator SpecIndex="10" Expression="fulleventweight" Label="fulleventweight" Title="fullEventWeight" Unit="" Internal="fulleventweight" Type="F" Min="0.00000000e+00" Max="1.18233869e-03"/>
    <Spectator SpecIndex="11" Expression="eventweight" Label="eventweight" Title="eventWeight" Unit="" Internal="eventweight" Type="F" Min="0.00000000e+00" Max="1.18463290e+00"/>
    <Spectator SpecIndex="12" Expression="eventcategory" Label="eventcategory" Title="eventCategory" Unit="" Internal="eventcategory" Type="F" Min="1.60000000e+01" Max="3.40000000e+01"/>
  </Spectators>
  <Classes NClass="2">
    <Class Name="Background" Index="0"/>
    <Class Name="Signal" Index="1"/>
  </Classes>
  <Transformations NTransformations="1">
    <Transform Name="Normalize">
      <Selection>
        <Input NInputs="12">
          <Input Type="Variable" Label="lepm" Expression="lepm"/>
          <Input Type="Variable" Label="mtone" Expression="mtone"/>
          <Input Type="Variable" Label="mttwo" Expression="mttwo"/>
          <Input Type="Variable" Label="leponept" Expression="leponept"/>
          <Input Type="Variable" Label="leptwopt" Expression="leptwopt"/>
          <Input Type="Variable" Label="pxivis" Expression="pxivis"/>
          <Input Type="Variable" Label="pxiinv" Expression="pxiinv"/>
          <Input Type="Variable" Label="njets" Expression="njets"/>
          <Input Type="Variable" Label="lepdeltaeta" Expression="lepdeltaeta"/>
          <Input Type="Variable" Label="lepdeltaphi" Expression="lepdeltaphi"/>
          <Input Type="Variable" Label="leponedeltaphi" Expression="leponedeltaphi"/>
          <Input Type="Variable" Label="leptwodeltaphi" Expression="leptwodeltaphi"/>
        </Input>
        <Output NOutputs="12">
          <Output Type="Variable" Label="lepm" Expression="lepm"/>
          <Output Type="Variable" Label="mtone" Expression="mtone"/>
          <Output Type="Variable" Label="mttwo" Expression="mttwo"/>
          <Output Type="Variable" Label="leponept" Expression="leponept"/>
          <Output Type="Variable" Label="leptwopt" Expression="leptwopt"/>
          <Output Type="Variable" Label="pxivis" Expression="pxivis"/>
          <Output Type="Variable" Label="pxiinv" Expression="pxiinv"/>
          <Output Type="Variable" Label="njets" Expression="njets"/>
          <Output Type="Variable" Label="lepdeltaeta" Expression="lepdeltaeta"/>
          <Output Type="Variable" Label="lepdeltaphi" Expression="lepdeltaphi"/>
          <Output Type="Variable" Label="leponedeltaphi" Expression="leponedeltaphi"/>
          <Output Type="Variable" Label="leptwodeltaphi" Expression="leptwodeltaphi"/>
        </Output>
      </Selection>
      <Class ClassIndex="0">
        <Ranges>
          <Range Index="0" Min="9.4012365341186523e+00" Max="6.2148791503906250e+02"/>
          <Range Index="1" Min="1.8082128837704659e-02" Max="2.6892929077148438e+02"/>
          <Range Index="2" Min="3.6708433181047440e-03" Max="4.1586715698242188e+02"/>
          <Range Index="3" Min="2.5000936508178711e+01" Max="3.3131420898437500e+02"/>
          <Range Index="4" Min="2.0000585556030273e+01" Max="5.9464514160156250e+02"/>
          <Range Index="5" Min="6.7278025671839714e-03" Max="4.1769677734375000e+02"/>
          <Range Index="6" Min="-1.8153976440429688e+02" Max="3.8740008544921875e+02"/>
          <Range Index="7" Min="0.0000000000000000e+00" Max="8.0000000000000000e+00"/>
          <Range Index="8" Min="4.9591064453125000e-05" Max="4.6044521331787109e+00"/>
          <Range Index="9" Min="2.3251771926879883e-04" Max="3.1414027214050293e+00"/>
          <Range Index="10" Min="6.5366381022613496e-05" Max="3.1374030113220215e+00"/>
          <Range Index="11" Min="1.4876697969157249e-04" Max="3.1413052082061768e+00"/>
        </Ranges>
      </Class>
      <Class ClassIndex="1">
        <Ranges>
          <Range Index="0" Min="1.9500362396240234e+01" Max="2.2350979614257812e+02"/>
          <Range Index="1" Min="1.8699719011783600e-01" Max="2.3435360717773438e+02"/>
          <Range Index="2" Min="2.5469493120908737e-02" Max="1.3569767761230469e+02"/>
          <Range Index="3" Min="2.5033721923828125e+01" Max="1.6422549438476562e+02"/>
          <Range Index="4" Min="2.0011188507080078e+01" Max="1.0781695556640625e+02"/>
          <Range Index="5" Min="1.1482260888442397e-03" Max="2.2669175720214844e+02"/>
          <Range Index="6" Min="-8.2400161743164062e+01" Max="8.3197425842285156e+01"/>
          <Range Index="7" Min="0.0000000000000000e+00" Max="4.0000000000000000e+00"/>
          <Range Index="8" Min="3.1146407127380371e-04" Max="3.5382046699523926e+00"/>
          <Range Index="9" Min="3.0123353004455566e-02" Max="3.1415567398071289e+00"/>
          <Range Index="10" Min="1.8665591778699309e-04" Max="3.1380209922790527e+00"/>
          <Range Index="11" Min="3.2805337104946375e-03" Max="3.1413700580596924e+00"/>
        </Ranges>
      </Class>
      <Class ClassIndex="2">
        <Ranges>
          <Range Index="0" Min="9.4012365341186523e+00" Max="6.2148791503906250e+02"/>
          <Range Index="1" Min="1.8082128837704659e-02" Max="2.6892929077148438e+02"/>
          <Range Index="2" Min="3.6708433181047440e-03" Max="4.1586715698242188e+02"/>
          <Range Index="3" Min="2.5000936508178711e+01" Max="3.3131420898437500e+02"/>
          <Range Index="4" Min="2.0000585556030273e+01" Max="5.9464514160156250e+02"/>
          <Range Index="5" Min="1.1482260888442397e-03" Max="4.1769677734375000e+02"/>
          <Range Index="6" Min="-1.8153976440429688e+02" Max="3.8740008544921875e+02"/>
          <Range Index="7" Min="0.0000000000000000e+00" Max="8.0000000000000000e+00"/>
          <Range Index="8" Min="4.9591064453125000e-05" Max="4.6044521331787109e+00"/>
          <Range Index="9" Min="2.3251771926879883e-04" Max="3.1415567398071289e+00"/>
          <Range Index="10" Min="6.5366381022613496e-05" Max="3.1380209922790527e+00"/>
          <Range Index="11" Min="1.4876697969157249e-04" Max="3.1413700580596924e+00"/>
        </Ranges>
      </Class>
    </Transform>
  </Transformations>
  <MVAPdfs/>
  <Weights>
    <Layout NLayers="5">
      <Layer Index="0" NNeurons="13">
        <Neuron NSynapses="10">
          3.5234465114012559e+00 2.2776122056541837e+01 2.6010738211624918e+00 3.3384045658065871e+00 -2.2315603406463715e+00 1.7606076504388999e+00 -2.1556425929936665e+00 6.5635186204855147e+00 -9.1255435179533650e-01 -2.0541188113697959e+01 
        </Neuron>
        <Neuron NSynapses="10">
          -2.2308959327236231e+00 3.7480823341736891e-01 -1.1047052550309617e+01 4.1704941970491864e+00 -7.1756394604458151e-01 9.0939711792842970e-01 -3.7676115004744308e+00 6.6651459995020153e+00 9.7725692685954990e-01 1.3718496544671350e+00 
        </Neuron>
        <Neuron NSynapses="10">
          -1.2384337877725309e+00 -1.5490014037339954e+00 -9.8441513673788510e+00 -4.7576819159288775e+00 1.4859506002153535e+00 -4.6954281189924207e-01 1.1291650812750205e+00 2.2855493375400133e+00 -7.9578290039192179e-01 7.0270197750654537e+00 
        </Neuron>
        <Neuron NSynapses="10">
          9.8921491013413043e-01 1.1488058216860505e+01 -5.1426753652410504e+00 -4.0698318897503233e-01 5.7560594816624242e+00 -7.7962288495054537e+00 -7.3545061327148753e-01 2.1833175911795561e+00 -7.2014280236746886e-01 -4.6653049273605296e+00 
        </Neuron>
        <Neuron NSynapses="10">
          -1.9216201621559832e+00 2.7443766061365055e-01 1.2404816622970353e+01 5.9332380355844916e-01 -2.3494985547228167e+00 1.0146468474015229e+01 3.7125454829137019e+00 1.6894208080028859e+00 2.1708345058348995e+00 -3.3561056182090143e-01 
        </Neuron>
        <Neuron NSynapses="10">
          -6.6374424516633868e-01 -9.4132472581954367e+00 6.5333323138757358e+00 3.0358970761459325e+00 -1.4858743182237548e+00 2.5029145212782167e+00 3.7656429189424601e+00 -6.1831426397711127e+00 1.8391323810900442e+00 -3.7620854298447250e+00 
        </Neuron>
        <Neuron NSynapses="10">
          6.1347674982973359e+00 3.1284833928492919e-02 -3.3675710135357391e+00 1.0067252284341606e+00 -4.8348636291227631e+00 6.0776520071748152e-01 -1.3476639705952127e+00 4.0926077783683104e+00 8.1827010955995039e-01 7.5952532684166185e-01 
        </Neuron>
        <Neuron NSynapses="10">
          5.2576571362472837e+00 -2.0974455182146610e+00 -6.9932547262711653e+00 3.4316526783727705e+00 1.6562002742001494e+00 -9.6904344460013316e+00 -1.6297023907441858e+01 -8.3095143081391747e+00 1.6338660869678130e+00 -3.1079341687230405e-01 
        </Neuron>
        <Neuron NSynapses="10">
          5.3983969984042961e+00 7.7791965793381235e-01 -4.2678839768563295e+00 2.4699706490702034e+00 2.4233493167532618e+00 -3.3133128645848919e+00 8.5412232732587079e-01 -1.0318910799653274e+00 -1.1174220959162835e+00 -1.0954611180609097e+00 
        </Neuron>
        <Neuron NSynapses="10">
          2.9922624480948730e+00 3.7525012677473173e+00 2.0501784139866056e-01 -2.9337509942441304e+00 -7.2094457300505512e+00 8.5254790569262422e+00 -4.5418510692048137e+00 -1.7275709934962398e+00 -1.8929657964274320e+00 -5.9918546689205003e+00 
        </Neuron>
        <Neuron NSynapses="10">
          -1.0908417303090998e+00 -4.1162325632424279e+00 3.7969136699980419e+00 -2.0471670092030823e+00 -7.4312827798379333e+00 1.0141394060035362e+01 -9.0834305058124690e-02 1.3766328776422583e+00 5.7012442521278295e-01 4.2297298177686820e+00 
        </Neuron>
        <Neuron NSynapses="10">
          -4.5820065901736449e+00 -4.4603124483661558e+00 1.3503136907774105e+00 9.0577869130436439e-01 -1.4447187585832373e+00 1.0720705070065433e+01 -1.9028522763252237e-01 -3.7188284787169206e+00 6.8813403552028363e-01 4.3104451624033153e+00 
        </Neuron>
        <Neuron NSynapses="10">
          3.5803713289645280e+00 1.1193600511268775e+01 -5.9114348975034421e+00 3.7441013072359848e+00 6.9630657110298366e-01 -1.0512232132189459e+01 -4.3392813809778890e+00 5.4137307430521575e-01 -2.7065670713462908e+00 -1.4320495810198715e+01 
        </Neuron>
      </Layer>
      <Layer Index="1" NNeurons="11">
        <Neuron NSynapses="5">
          5.4460535443832003e-01 -4.5551349596252209e+00 3.2579712826435490e+00 -2.7661429879714290e+00 3.2643771490477289e+00 
        </Neuron>
        <Neuron NSynapses="5">
          -6.0891912808782847e+00 -1.8260574940523508e+00 -2.5667146592351271e+00 1.8579471256412363e+00 8.8087542737710951e+00 
        </Neuron>
        <Neuron NSynapses="5">
          1.5458846643912205e+00 -2.6127359660482927e+00 -3.9734220261747253e+00 1.6867420278775493e+00 -3.9567896076936644e+00 
        </Neuron>
        <Neuron NSynapses="5">
          2.7049702212083666e+00 4.5362057322662173e+00 -8.1671576335186957e-01 -2.3476808692464672e+00 -1.9021184664036650e-01 
        </Neuron>
        <Neuron NSynapses="5">
          -4.2620388694098610e+00 -4.0617794354608590e+00 -2.3420630672696179e+00 2.1060373698312502e+00 -9.0249062938442115e-01 
        </Neuron>
        <Neuron NSynapses="5">
          3.7936944107353612e+00 -1.8940712139250304e+00 4.0408038467163493e-01 8.3321220562334453e-01 -1.0771686404843464e+01 
        </Neuron>
        <Neuron NSynapses="5">
          5.9781949214256347e+00 -6.2080057154100698e-01 -1.9305831300465930e+00 -9.6844508170550747e-01 -2.8763854336226422e+00 
        </Neuron>
        <Neuron NSynapses="5">
          -1.7086408547371348e+00 1.3004283192362712e-01 1.0047662577651410e-01 1.0361944878070721e-01 4.6335584316923404e+00 
        </Neuron>
        <Neuron NSynapses="5">
          1.1251204482324515e+00 1.1838327847001133e+00 -4.9997555263458271e-01 1.6506826772587384e+00 1.4321472572374925e+00 
        </Neuron>
        <Neuron NSynapses="5">
          -6.1769404612291110e+00 -1.7289839190419312e+00 1.3093812252359900e+00 7.3514329214350269e+00 2.8590329435619721e+00 
        </Neuron>
        <Neuron NSynapses="5">
          -6.0927142150623084e+00 2.4453239291749305e+00 1.7542642393740944e+00 -3.8987295531426840e+00 1.1229332949872528e+00 
        </Neuron>
      </Layer>
      <Layer Index="2" NNeurons="6">
        <Neuron NSynapses="3">
          -4.7911126349058053e+00 5.5866046384686081e+00 8.4530435538780679e+00 
        </Neuron>
        <Neuron NSynapses="3">
          -6.6602420201437145e+00 -3.9768767010989734e+00 -4.2913041116332223e-01 
        </Neuron>
        <Neuron NSynapses="3">
          3.6790631229676154e+00 -3.0021832139890967e+00 -3.5234732407026841e+00 
        </Neuron>
        <Neuron NSynapses="3">
          2.2195366581049840e+00 -3.9380865086893566e+00 -3.5402134978393365e+00 
        </Neuron>
        <Neuron NSynapses="3">
          4.0765767069915748e+00 -2.1862741283299649e+00 -6.0911862167856468e+00 
        </Neuron>
        <Neuron NSynapses="3">
          -3.2165246554787488e+00 -4.1766849514637006e+00 4.8756023473714799e-01 
        </Neuron>
      </Layer>
      <Layer Index="3" NNeurons="4">
        <Neuron NSynapses="1">
          -6.1205606996200048e+00 
        </Neuron>
        <Neuron NSynapses="1">
          5.8417888317465447e+00 
        </Neuron>
        <Neuron NSynapses="1">
          2.1847242015109529e+00 
        </Neuron>
        <Neuron NSynapses="1">
          -3.2835034731935947e-01 
        </Neuron>
      </Layer>
      <Layer Index="4" NNeurons="1">
        <Neuron NSynapses="0"/>
      </Layer>
    </Layout>
  </Weights>
</MethodSetup>
