<?xml version="1.0"?>
<MethodSetup Method="MLP::MLP_MM">
  <GeneralInfo>
    <Info name="TMVA Release" value="4.2.1 [262657]"/>
    <Info name="ROOT Release" value="6.06/01 [394753]"/>
    <Info name="Creator" value="mmackenz"/>
    <Info name="Date" value="Tue Dec 10 14:03:45 2019"/>
    <Info name="Host" value="Linux vocms0315.cern.ch 2.6.32-573.26.1.el6.x86_64 #1 SMP Wed May 4 09:23:05 CEST 2016 x86_64 x86_64 x86_64 GNU/Linux"/>
    <Info name="Dir" value="/uscms_data/d3/mmackenz/CMSSW_8_0_20/src/BLT/BLTAnalysis/tmva_training/training_background_ztautau_mutau_8"/>
    <Info name="Training events" value="173221"/>
    <Info name="TrainingTime" value="1.14669188e+03"/>
    <Info name="AnalysisType" value="Classification"/>
  </GeneralInfo>
  <Options>
    <Option name="NCycles" modified="No">500</Option>
    <Option name="HiddenLayers" modified="Yes">10,5,3</Option>
    <Option name="NeuronType" modified="No">sigmoid</Option>
    <Option name="RandomSeed" modified="No">1</Option>
    <Option name="EstimatorType" modified="No">CE</Option>
    <Option name="NeuronInputType" modified="No">sum</Option>
    <Option name="V" modified="Yes">False</Option>
    <Option name="VerbosityLevel" modified="No">Default</Option>
    <Option name="VarTransform" modified="Yes">N</Option>
    <Option name="H" modified="Yes">False</Option>
    <Option name="CreateMVAPdfs" modified="No">False</Option>
    <Option name="IgnoreNegWeightsInTraining" modified="No">False</Option>
    <Option name="TrainingMethod" modified="No">BP</Option>
    <Option name="LearningRate" modified="No">2.000000e-02</Option>
    <Option name="DecayRate" modified="No">1.000000e-02</Option>
    <Option name="TestRate" modified="No">10</Option>
    <Option name="EpochMonitoring" modified="No">False</Option>
    <Option name="Sampling" modified="No">1.000000e+00</Option>
    <Option name="SamplingEpoch" modified="No">1.000000e+00</Option>
    <Option name="SamplingImportance" modified="No">1.000000e+00</Option>
    <Option name="SamplingTraining" modified="No">True</Option>
    <Option name="SamplingTesting" modified="No">False</Option>
    <Option name="ResetStep" modified="No">50</Option>
    <Option name="Tau" modified="No">3.000000e+00</Option>
    <Option name="BPMode" modified="No">sequential</Option>
    <Option name="BatchSize" modified="No">-1</Option>
    <Option name="ConvergenceImprove" modified="No">1.000000e-30</Option>
    <Option name="ConvergenceTests" modified="No">-1</Option>
    <Option name="UseRegulator" modified="No">False</Option>
    <Option name="UpdateLimit" modified="No">10000</Option>
    <Option name="CalculateErrors" modified="No">False</Option>
    <Option name="WeightRange" modified="No">1.000000e+00</Option>
  </Options>
  <Variables NVar="12">
    <Variable VarIndex="0" Expression="lepm" Label="lepm" Title="M_{ll}" Unit="GeV" Internal="lepm" Type="F" Min="8.73283195e+00" Max="1.74561560e+03"/>
    <Variable VarIndex="1" Expression="mtone" Label="mtone" Title="MT(MET,l1)" Unit="" Internal="mtone" Type="F" Min="2.61359237e-04" Max="1.03278418e+03"/>
    <Variable VarIndex="2" Expression="mttwo" Label="mttwo" Title="MT(MET,l2)" Unit="" Internal="mttwo" Type="F" Min="1.38946227e-03" Max="2.28455762e+03"/>
    <Variable VarIndex="3" Expression="leponept" Label="leponept" Title="pT_{l1}" Unit="" Internal="leponept" Type="F" Min="2.50000534e+01" Max="6.56955688e+02"/>
    <Variable VarIndex="4" Expression="leptwopt" Label="leptwopt" Title="pT_{l2}" Unit="" Internal="leptwopt" Type="F" Min="2.00001011e+01" Max="1.44012244e+03"/>
    <Variable VarIndex="5" Expression="pxivis" Label="pxivis" Title="p^{vis}_{#xi}" Unit="" Internal="pxivis" Type="F" Min="4.27814171e-04" Max="6.43688110e+02"/>
    <Variable VarIndex="6" Expression="pxiinv" Label="pxiinv" Title="p^{inv}_{#xi}" Unit="" Internal="pxiinv" Type="F" Min="-8.20774292e+02" Max="7.77524597e+02"/>
    <Variable VarIndex="7" Expression="njets" Label="njets" Title="nJets" Unit="" Internal="njets" Type="F" Min="0.00000000e+00" Max="1.00000000e+01"/>
    <Variable VarIndex="8" Expression="lepdeltaeta" Label="lepdeltaeta" Title="#Delta#eta_{ll}" Unit="" Internal="lepdeltaeta" Type="F" Min="1.28746033e-05" Max="4.68793249e+00"/>
    <Variable VarIndex="9" Expression="lepdeltaphi" Label="lepdeltaphi" Title="#Delta#phi_{ll}" Unit="" Internal="lepdeltaphi" Type="F" Min="7.41481781e-05" Max="3.14158440e+00"/>
    <Variable VarIndex="10" Expression="leponedeltaphi" Label="leponedeltaphi" Title="#Delta#phi_{l1,ll}" Unit="" Internal="leponedeltaphi" Type="F" Min="1.97633035e-05" Max="3.14155698e+00"/>
    <Variable VarIndex="11" Expression="leptwodeltaphi" Label="leptwodeltaphi" Title="#Delta#phi_{l2,ll}" Unit="" Internal="leptwodeltaphi" Type="F" Min="2.74400500e-05" Max="3.14154696e+00"/>
  </Variables>
  <Spectators NSpec="13">
    <Spectator SpecIndex="0" Expression="leponed0" Label="leponed0" Title="D0_{l1}" Unit="" Internal="leponed0" Type="F" Min="-1.78547874e-01" Max="1.05375096e-01"/>
    <Spectator SpecIndex="1" Expression="leptwod0" Label="leptwod0" Title="D0_{l2}" Unit="" Internal="leptwod0" Type="F" Min="-3.60312492e-01" Max="1.75156251e-01"/>
    <Spectator SpecIndex="2" Expression="htdeltaphi" Label="htdeltaphi" Title="#Delta#phi_{MET,ll}" Unit="" Internal="htdeltaphi" Type="F" Min="1.14218064e-05" Max="3.14158487e+00"/>
    <Spectator SpecIndex="3" Expression="leponeiso" Label="leponeiso" Title="Iso_{l1}" Unit="" Internal="leponeiso" Type="F" Min="0.00000000e+00" Max="5.35442772e+01"/>
    <Spectator SpecIndex="4" Expression="onemetdeltaphi" Label="onemetdeltaphi" Title="#Delta#phi_{MET,l1}" Unit="" Internal="onemetdeltaphi" Type="F" Min="6.02006912e-06" Max="3.14159203e+00"/>
    <Spectator SpecIndex="5" Expression="twometdeltaphi" Label="twometdeltaphi" Title="#Delta#phi_{MET,l2}" Unit="" Internal="twometdeltaphi" Type="F" Min="5.37931919e-05" Max="3.14158940e+00"/>
    <Spectator SpecIndex="6" Expression="metdeltaphi" Label="metdeltaphi" Title="#Delta#phi_{MET,ll}" Unit="" Internal="metdeltaphi" Type="F" Min="2.93607663e-05" Max="3.14158869e+00"/>
    <Spectator SpecIndex="7" Expression="leppt" Label="leppt" Title="Pt_{ll}" Unit="GeV" Internal="leppt" Type="F" Min="9.31768492e-03" Max="9.30765259e+02"/>
    <Spectator SpecIndex="8" Expression="met" Label="met" Title="MET" Unit="GeV" Internal="met" Type="F" Min="1.76449791e-02" Max="9.37507324e+02"/>
    <Spectator SpecIndex="9" Expression="lepdeltar" Label="lepdeltar" Title="#DeltaR_{ll}" Unit="" Internal="lepdeltar" Type="F" Min="3.10872883e-01" Max="5.42631769e+00"/>
    <Spectator SpecIndex="10" Expression="fulleventweight" Label="fulleventweight" Title="fullEventWeight" Unit="" Internal="fulleventweight" Type="F" Min="-1.48848107e-04" Max="1.22129521e-03"/>
    <Spectator SpecIndex="11" Expression="eventweight" Label="eventweight" Title="eventWeight" Unit="" Internal="eventweight" Type="F" Min="-1.38616395e+00" Max="1.36766303e+00"/>
    <Spectator SpecIndex="12" Expression="eventcategory" Label="eventcategory" Title="eventCategory" Unit="" Internal="eventcategory" Type="F" Min="1.00000000e+00" Max="3.40000000e+01"/>
  </Spectators>
  <Classes NClass="2">
    <Class Name="Background" Index="0"/>
    <Class Name="Signal" Index="1"/>
  </Classes>
  <Transformations NTransformations="1">
    <Transform Name="Normalize">
      <Selection>
        <Input NInputs="12">
          <Input Type="Variable" Label="lepm" Expression="lepm"/>
          <Input Type="Variable" Label="mtone" Expression="mtone"/>
          <Input Type="Variable" Label="mttwo" Expression="mttwo"/>
          <Input Type="Variable" Label="leponept" Expression="leponept"/>
          <Input Type="Variable" Label="leptwopt" Expression="leptwopt"/>
          <Input Type="Variable" Label="pxivis" Expression="pxivis"/>
          <Input Type="Variable" Label="pxiinv" Expression="pxiinv"/>
          <Input Type="Variable" Label="njets" Expression="njets"/>
          <Input Type="Variable" Label="lepdeltaeta" Expression="lepdeltaeta"/>
          <Input Type="Variable" Label="lepdeltaphi" Expression="lepdeltaphi"/>
          <Input Type="Variable" Label="leponedeltaphi" Expression="leponedeltaphi"/>
          <Input Type="Variable" Label="leptwodeltaphi" Expression="leptwodeltaphi"/>
        </Input>
        <Output NOutputs="12">
          <Output Type="Variable" Label="lepm" Expression="lepm"/>
          <Output Type="Variable" Label="mtone" Expression="mtone"/>
          <Output Type="Variable" Label="mttwo" Expression="mttwo"/>
          <Output Type="Variable" Label="leponept" Expression="leponept"/>
          <Output Type="Variable" Label="leptwopt" Expression="leptwopt"/>
          <Output Type="Variable" Label="pxivis" Expression="pxivis"/>
          <Output Type="Variable" Label="pxiinv" Expression="pxiinv"/>
          <Output Type="Variable" Label="njets" Expression="njets"/>
          <Output Type="Variable" Label="lepdeltaeta" Expression="lepdeltaeta"/>
          <Output Type="Variable" Label="lepdeltaphi" Expression="lepdeltaphi"/>
          <Output Type="Variable" Label="leponedeltaphi" Expression="leponedeltaphi"/>
          <Output Type="Variable" Label="leptwodeltaphi" Expression="leptwodeltaphi"/>
        </Output>
      </Selection>
      <Class ClassIndex="0">
        <Ranges>
          <Range Index="0" Min="8.7328319549560547e+00" Max="1.7456156005859375e+03"/>
          <Range Index="1" Min="2.6135923690162599e-04" Max="1.0327841796875000e+03"/>
          <Range Index="2" Min="1.3894622679799795e-03" Max="2.2845576171875000e+03"/>
          <Range Index="3" Min="2.5000053405761719e+01" Max="6.5695568847656250e+02"/>
          <Range Index="4" Min="2.0000101089477539e+01" Max="1.4401224365234375e+03"/>
          <Range Index="5" Min="4.2781417141668499e-04" Max="6.4368811035156250e+02"/>
          <Range Index="6" Min="-8.2077429199218750e+02" Max="7.7752459716796875e+02"/>
          <Range Index="7" Min="0.0000000000000000e+00" Max="1.0000000000000000e+01"/>
          <Range Index="8" Min="1.2874603271484375e-05" Max="4.6879324913024902e+00"/>
          <Range Index="9" Min="7.4148178100585938e-05" Max="3.1415843963623047e+00"/>
          <Range Index="10" Min="1.9763303498621099e-05" Max="3.1415569782257080e+00"/>
          <Range Index="11" Min="2.7440049962024204e-05" Max="3.1415469646453857e+00"/>
        </Ranges>
      </Class>
      <Class ClassIndex="1">
        <Ranges>
          <Range Index="0" Min="1.9500362396240234e+01" Max="4.6406939697265625e+02"/>
          <Range Index="1" Min="1.8699719011783600e-01" Max="2.3435360717773438e+02"/>
          <Range Index="2" Min="2.5469493120908737e-02" Max="1.3569767761230469e+02"/>
          <Range Index="3" Min="2.5033721923828125e+01" Max="2.3912149047851562e+02"/>
          <Range Index="4" Min="2.0011188507080078e+01" Max="1.6159243774414062e+02"/>
          <Range Index="5" Min="1.1482260888442397e-03" Max="2.3780343627929688e+02"/>
          <Range Index="6" Min="-8.2400161743164062e+01" Max="1.0331335449218750e+02"/>
          <Range Index="7" Min="0.0000000000000000e+00" Max="4.0000000000000000e+00"/>
          <Range Index="8" Min="3.1146407127380371e-04" Max="3.5382046699523926e+00"/>
          <Range Index="9" Min="1.5912771224975586e-02" Max="3.1415567398071289e+00"/>
          <Range Index="10" Min="8.4787512605544180e-05" Max="3.1380209922790527e+00"/>
          <Range Index="11" Min="3.2805337104946375e-03" Max="3.1414060592651367e+00"/>
        </Ranges>
      </Class>
      <Class ClassIndex="2">
        <Ranges>
          <Range Index="0" Min="8.7328319549560547e+00" Max="1.7456156005859375e+03"/>
          <Range Index="1" Min="2.6135923690162599e-04" Max="1.0327841796875000e+03"/>
          <Range Index="2" Min="1.3894622679799795e-03" Max="2.2845576171875000e+03"/>
          <Range Index="3" Min="2.5000053405761719e+01" Max="6.5695568847656250e+02"/>
          <Range Index="4" Min="2.0000101089477539e+01" Max="1.4401224365234375e+03"/>
          <Range Index="5" Min="4.2781417141668499e-04" Max="6.4368811035156250e+02"/>
          <Range Index="6" Min="-8.2077429199218750e+02" Max="7.7752459716796875e+02"/>
          <Range Index="7" Min="0.0000000000000000e+00" Max="1.0000000000000000e+01"/>
          <Range Index="8" Min="1.2874603271484375e-05" Max="4.6879324913024902e+00"/>
          <Range Index="9" Min="7.4148178100585938e-05" Max="3.1415843963623047e+00"/>
          <Range Index="10" Min="1.9763303498621099e-05" Max="3.1415569782257080e+00"/>
          <Range Index="11" Min="2.7440049962024204e-05" Max="3.1415469646453857e+00"/>
        </Ranges>
      </Class>
    </Transform>
  </Transformations>
  <MVAPdfs/>
  <Weights>
    <Layout NLayers="5">
      <Layer Index="0" NNeurons="13">
        <Neuron NSynapses="10">
          -2.7204251031185649e+00 1.7950288885621386e+01 6.7394039240468793e+00 -1.2662937857504797e+00 3.4083738249635602e+00 -3.1286673393854514e+00 -2.0196767260299159e-01 2.8738174338859118e+01 -5.9521699525897862e+00 1.2289803202528978e+01 
        </Neuron>
        <Neuron NSynapses="10">
          -1.3226503936784790e+00 2.9708146642935556e+00 -3.8482803304612059e+00 -3.8897330339544696e+00 1.0704273930949428e+01 -5.6478056020502949e+00 9.5095828089141499e+00 1.9476010804459595e+01 1.9954693722072259e-02 4.3568779598832975e+01 
        </Neuron>
        <Neuron NSynapses="10">
          -7.3943820405567173e+00 -1.1372758549135066e+01 1.3972294337112492e+01 -2.9617602578561710e+00 -1.2328290166797002e+00 -2.8036230328945577e+00 2.0407318353208520e+01 3.6095440801816072e+00 -7.7881632971721313e+00 -1.6478393509138616e+01 
        </Neuron>
        <Neuron NSynapses="10">
          1.6463260001831892e+00 2.3354195743309198e+01 -1.7818579754038821e+00 -3.3179754160184651e+00 1.1863853573959119e+01 1.0906177654356521e+00 -8.4985614668520562e+00 5.5345592010289671e+01 -3.0212184751650333e+00 4.2512520777822978e+01 
        </Neuron>
        <Neuron NSynapses="10">
          -6.4128939272882759e+00 2.4232007842322725e+00 1.7757755587972323e+01 -3.1375296133303689e+00 -2.0906875884081413e+00 -7.6402374477926333e-02 1.2010373340452685e+00 -2.5713753894163208e+01 -6.2585051843627353e+00 -2.6500669358576111e+01 
        </Neuron>
        <Neuron NSynapses="10">
          -3.9468478063826540e+00 -1.7159790860414267e-01 6.3879379301539974e+00 -2.7209501550871407e+00 1.1017703366114366e+00 -3.7172643031493996e-01 -7.7070882063121973e+00 -2.4125743551972615e+01 -1.9890972318016613e+00 -1.6075260598801986e+01 
        </Neuron>
        <Neuron NSynapses="10">
          -2.3719160819581062e+00 -6.7170940098937293e-01 2.5506283878926990e+00 -9.4240681804316009e-02 -7.8258844519221646e-02 2.9265622319873916e+00 -1.1640074099407121e+01 -1.9007024669683254e+01 -5.7795621359430915e-01 -1.9017567720128390e+01 
        </Neuron>
        <Neuron NSynapses="10">
          4.1316196229376595e-01 -1.9595920867921347e+01 -8.8098759274555007e+00 1.2141506948979925e+00 1.8935053085773074e+01 -2.9786542247908523e+00 -9.4711174776114504e+00 1.8925325490479782e+01 4.0865496054650219e+00 5.3258827108179695e+01 
        </Neuron>
        <Neuron NSynapses="10">
          8.8935408534152831e+00 1.7829135775741911e+00 -9.0704494588865661e+00 -6.3946061646290895e+00 1.4255056406574168e+01 -1.4308170254970097e+01 -4.6688242205229278e+00 5.8356078206911199e+00 -2.1964389409071425e+00 2.3314312054537044e+01 
        </Neuron>
        <Neuron NSynapses="10">
          -1.2617910938039676e+00 4.8516879149163286e+00 1.8480581442488379e+01 -5.9857839885543818e-01 -1.5693557425862011e+01 1.4823464893466777e+01 -4.5163740482801353e+00 1.4320175011369617e+01 -1.2893409463032230e+01 -1.2618787938087484e+01 
        </Neuron>
        <Neuron NSynapses="10">
          -1.0933344991923006e+01 -3.8815963724848404e+00 2.1719204128332350e+01 5.8917536053479935e+00 -1.0280283309939156e+00 7.7250806215096715e+00 -1.8801723880953898e+00 -1.9466939432338936e+01 -1.2605839983353262e+01 -3.7023935415714817e+01 
        </Neuron>
        <Neuron NSynapses="10">
          -2.8488924269635665e+00 -3.9159358943905267e+00 1.5497354965372763e+01 -8.7649175490634619e+00 -1.9890980246465027e+01 1.1533970846966957e+01 -3.0698619109124756e+00 -2.1583381021137235e+01 -6.8346232481868094e+00 -2.3012816743669763e+01 
        </Neuron>
        <Neuron NSynapses="10">
          7.4292601527673447e+00 1.1504298266935098e+01 -1.9702656235525822e+01 7.8128708113389198e+00 4.2620974251756145e+00 -2.6089859142512557e+00 3.5869946585831752e-01 5.5295090212812184e+01 6.9922584950064115e+00 4.7642970265406042e+01 
        </Neuron>
      </Layer>
      <Layer Index="1" NNeurons="11">
        <Neuron NSynapses="5">
          -6.9600177633459115e+00 -8.1197647967917763e-01 1.3092877599861188e+00 5.1873228689662413e-03 1.2901775958641972e+00 
        </Neuron>
        <Neuron NSynapses="5">
          1.2847765520499024e+01 1.2301991530158702e+01 -3.8682965530336602e+00 5.3762031270951312e+00 7.6016641813185803e-01 
        </Neuron>
        <Neuron NSynapses="5">
          9.2447479946280406e+00 -1.0530749471048868e+01 -6.7704814860573439e+00 -3.0936052265938367e+00 -3.8303983796718364e+00 
        </Neuron>
        <Neuron NSynapses="5">
          -2.7374079476310160e+00 1.6540478422995930e+00 -5.1584816027610114e-01 -1.2545712954259920e-02 7.5076917616100514e-01 
        </Neuron>
        <Neuron NSynapses="5">
          -9.2309931124322695e+00 5.0971540909726993e+00 5.8211683906476841e+00 -1.5367803152285122e+00 -2.0720681900831135e+00 
        </Neuron>
        <Neuron NSynapses="5">
          2.3697408986066413e+00 -9.9825949700084795e+00 -9.1695300395005557e+00 -9.3233372589572596e+00 -8.7317696406484071e+00 
        </Neuron>
        <Neuron NSynapses="5">
          -3.2791030031072648e+00 -1.7975327253968441e+00 1.5238127341553864e+00 7.4418022625919518e+00 1.2927783846763157e+01 
        </Neuron>
        <Neuron NSynapses="5">
          -2.3116861780714892e+01 1.2042339504674391e+01 1.9249628599280090e+01 1.0441542055948933e+01 1.3639644243054834e+00 
        </Neuron>
        <Neuron NSynapses="5">
          -1.2116633298201420e+00 -2.3803006273515188e+00 -4.0047703010981532e+00 2.9443393660258668e+00 2.7580625024069003e+00 
        </Neuron>
        <Neuron NSynapses="5">
          -1.3273232002389172e+01 2.0852267216188235e+01 2.2092207912027082e+01 1.7626845973493303e+01 3.7233932577899824e+00 
        </Neuron>
        <Neuron NSynapses="5">
          -2.5245310268110943e+00 -1.0228691043208025e+01 -7.9971798296936285e+00 -9.8484920223593146e+00 -2.5539080974264747e+00 
        </Neuron>
      </Layer>
      <Layer Index="2" NNeurons="6">
        <Neuron NSynapses="3">
          -3.8819340843407786e+00 -3.4789940875178385e+00 5.7972540336961025e+00 
        </Neuron>
        <Neuron NSynapses="3">
          -7.8146152214065063e+00 -8.4498727041019173e+00 -3.7822146211666610e+00 
        </Neuron>
        <Neuron NSynapses="3">
          2.1695137482394808e-01 3.7774014726074441e+00 -5.3748907893651827e+00 
        </Neuron>
        <Neuron NSynapses="3">
          4.0227792307408343e+00 -2.0167718189591652e+00 -6.2179725627598526e+00 
        </Neuron>
        <Neuron NSynapses="3">
          4.3940228292703285e+00 -3.1604696945892932e+00 -4.6663761128311236e+00 
        </Neuron>
        <Neuron NSynapses="3">
          -6.0367693687059898e+00 -3.3236948998973972e+00 -6.2445300489690181e-01 
        </Neuron>
      </Layer>
      <Layer Index="3" NNeurons="4">
        <Neuron NSynapses="1">
          -4.5212245086046421e+00 
        </Neuron>
        <Neuron NSynapses="1">
          1.7679305131710252e+00 
        </Neuron>
        <Neuron NSynapses="1">
          4.9517536028332803e+00 
        </Neuron>
        <Neuron NSynapses="1">
          -2.1114095703604661e+00 
        </Neuron>
      </Layer>
      <Layer Index="4" NNeurons="1">
        <Neuron NSynapses="0"/>
      </Layer>
    </Layout>
  </Weights>
</MethodSetup>
