<?xml version="1.0"?>
<MethodSetup Method="MLP::MLP_MM">
  <GeneralInfo>
    <Info name="TMVA Release" value="4.2.1 [262657]"/>
    <Info name="ROOT Release" value="6.06/01 [394753]"/>
    <Info name="Creator" value="mmackenz"/>
    <Info name="Date" value="Fri Dec  6 11:20:08 2019"/>
    <Info name="Host" value="Linux vocms0315.cern.ch 2.6.32-573.26.1.el6.x86_64 #1 SMP Wed May 4 09:23:05 CEST 2016 x86_64 x86_64 x86_64 GNU/Linux"/>
    <Info name="Dir" value="/uscms_data/d3/mmackenz/CMSSW_8_0_20/src/BLT/BLTAnalysis/tmva_training/training_background_ztautau_mutau_7"/>
    <Info name="Training events" value="224929"/>
    <Info name="TrainingTime" value="1.92574730e+03"/>
    <Info name="AnalysisType" value="Classification"/>
  </GeneralInfo>
  <Options>
    <Option name="NCycles" modified="No">500</Option>
    <Option name="HiddenLayers" modified="Yes">10,10,5</Option>
    <Option name="NeuronType" modified="No">sigmoid</Option>
    <Option name="RandomSeed" modified="No">1</Option>
    <Option name="EstimatorType" modified="No">CE</Option>
    <Option name="NeuronInputType" modified="No">sum</Option>
    <Option name="V" modified="Yes">False</Option>
    <Option name="VerbosityLevel" modified="No">Default</Option>
    <Option name="VarTransform" modified="Yes">N</Option>
    <Option name="H" modified="Yes">False</Option>
    <Option name="CreateMVAPdfs" modified="No">False</Option>
    <Option name="IgnoreNegWeightsInTraining" modified="No">False</Option>
    <Option name="TrainingMethod" modified="No">BP</Option>
    <Option name="LearningRate" modified="No">2.000000e-02</Option>
    <Option name="DecayRate" modified="No">1.000000e-02</Option>
    <Option name="TestRate" modified="No">10</Option>
    <Option name="EpochMonitoring" modified="No">False</Option>
    <Option name="Sampling" modified="No">1.000000e+00</Option>
    <Option name="SamplingEpoch" modified="No">1.000000e+00</Option>
    <Option name="SamplingImportance" modified="No">1.000000e+00</Option>
    <Option name="SamplingTraining" modified="No">True</Option>
    <Option name="SamplingTesting" modified="No">False</Option>
    <Option name="ResetStep" modified="No">50</Option>
    <Option name="Tau" modified="No">3.000000e+00</Option>
    <Option name="BPMode" modified="No">sequential</Option>
    <Option name="BatchSize" modified="No">-1</Option>
    <Option name="ConvergenceImprove" modified="No">1.000000e-30</Option>
    <Option name="ConvergenceTests" modified="No">-1</Option>
    <Option name="UseRegulator" modified="No">False</Option>
    <Option name="UpdateLimit" modified="No">10000</Option>
    <Option name="CalculateErrors" modified="No">False</Option>
    <Option name="WeightRange" modified="No">1.000000e+00</Option>
  </Options>
  <Variables NVar="10">
    <Variable VarIndex="0" Expression="lepm" Label="lepm" Title="M_{ll}" Unit="GeV" Internal="lepm" Type="F" Min="8.90277100e+00" Max="1.36283777e+03"/>
    <Variable VarIndex="1" Expression="mtone" Label="mtone" Title="MT(MET,l1)" Unit="" Internal="mtone" Type="F" Min="2.67468655e-04" Max="1.07083301e+03"/>
    <Variable VarIndex="2" Expression="mttwo" Label="mttwo" Title="MT(MET,l2)" Unit="" Internal="mttwo" Type="F" Min="4.99580638e-04" Max="1.08552502e+03"/>
    <Variable VarIndex="3" Expression="leponept" Label="leponept" Title="pT_{l1}" Unit="" Internal="leponept" Type="F" Min="2.50000210e+01" Max="8.28075745e+02"/>
    <Variable VarIndex="4" Expression="leptwopt" Label="leptwopt" Title="pT_{l2}" Unit="" Internal="leptwopt" Type="F" Min="2.00000191e+01" Max="6.44417053e+02"/>
    <Variable VarIndex="5" Expression="pxivis" Label="pxivis" Title="p^{vis}_{#xi}" Unit="" Internal="pxivis" Type="F" Min="3.40449114e-05" Max="6.91377930e+02"/>
    <Variable VarIndex="6" Expression="pxiinv" Label="pxiinv" Title="p^{inv}_{#xi}" Unit="" Internal="pxiinv" Type="F" Min="-4.68622864e+02" Max="6.89948914e+02"/>
    <Variable VarIndex="7" Expression="njets" Label="njets" Title="nJets" Unit="" Internal="njets" Type="F" Min="0.00000000e+00" Max="1.10000000e+01"/>
    <Variable VarIndex="8" Expression="lepdeltaeta" Label="lepdeltaeta" Title="#Delta#eta_{ll}" Unit="" Internal="lepdeltaeta" Type="F" Min="7.83801079e-06" Max="4.65566397e+00"/>
    <Variable VarIndex="9" Expression="lepdeltaphi" Label="lepdeltaphi" Title="#Delta#phi_{ll}" Unit="" Internal="lepdeltaphi" Type="F" Min="4.23192978e-06" Max="3.14159179e+00"/>
  </Variables>
  <Spectators NSpec="6">
    <Spectator SpecIndex="0" Expression="leppt" Label="leppt" Title="Pt_{ll}" Unit="GeV" Internal="leppt" Type="F" Min="9.31768492e-03" Max="7.84521912e+02"/>
    <Spectator SpecIndex="1" Expression="met" Label="met" Title="MET" Unit="GeV" Internal="met" Type="F" Min="8.64250138e-02" Max="8.06270203e+02"/>
    <Spectator SpecIndex="2" Expression="lepdeltar" Label="lepdeltar" Title="#DeltaR_{ll}" Unit="" Internal="lepdeltar" Type="F" Min="3.06417584e-01" Max="5.53219604e+00"/>
    <Spectator SpecIndex="3" Expression="fulleventweight" Label="fulleventweight" Title="fullEventWeight" Unit="" Internal="fulleventweight" Type="F" Min="-1.51499422e-04" Max="7.79851922e-04"/>
    <Spectator SpecIndex="4" Expression="eventweight" Label="eventweight" Title="eventWeight" Unit="" Internal="eventweight" Type="F" Min="-1.20468271e+00" Max="1.36766303e+00"/>
    <Spectator SpecIndex="5" Expression="eventcategory" Label="eventcategory" Title="eventCategory" Unit="" Internal="eventcategory" Type="F" Min="1.00000000e+00" Max="3.40000000e+01"/>
  </Spectators>
  <Classes NClass="2">
    <Class Name="Background" Index="0"/>
    <Class Name="Signal" Index="1"/>
  </Classes>
  <Transformations NTransformations="1">
    <Transform Name="Normalize">
      <Selection>
        <Input NInputs="10">
          <Input Type="Variable" Label="lepm" Expression="lepm"/>
          <Input Type="Variable" Label="mtone" Expression="mtone"/>
          <Input Type="Variable" Label="mttwo" Expression="mttwo"/>
          <Input Type="Variable" Label="leponept" Expression="leponept"/>
          <Input Type="Variable" Label="leptwopt" Expression="leptwopt"/>
          <Input Type="Variable" Label="pxivis" Expression="pxivis"/>
          <Input Type="Variable" Label="pxiinv" Expression="pxiinv"/>
          <Input Type="Variable" Label="njets" Expression="njets"/>
          <Input Type="Variable" Label="lepdeltaeta" Expression="lepdeltaeta"/>
          <Input Type="Variable" Label="lepdeltaphi" Expression="lepdeltaphi"/>
        </Input>
        <Output NOutputs="10">
          <Output Type="Variable" Label="lepm" Expression="lepm"/>
          <Output Type="Variable" Label="mtone" Expression="mtone"/>
          <Output Type="Variable" Label="mttwo" Expression="mttwo"/>
          <Output Type="Variable" Label="leponept" Expression="leponept"/>
          <Output Type="Variable" Label="leptwopt" Expression="leptwopt"/>
          <Output Type="Variable" Label="pxivis" Expression="pxivis"/>
          <Output Type="Variable" Label="pxiinv" Expression="pxiinv"/>
          <Output Type="Variable" Label="njets" Expression="njets"/>
          <Output Type="Variable" Label="lepdeltaeta" Expression="lepdeltaeta"/>
          <Output Type="Variable" Label="lepdeltaphi" Expression="lepdeltaphi"/>
        </Output>
      </Selection>
      <Class ClassIndex="0">
        <Ranges>
          <Range Index="0" Min="8.9027709960937500e+00" Max="1.3628377685546875e+03"/>
          <Range Index="1" Min="2.6746865478344262e-04" Max="1.0708330078125000e+03"/>
          <Range Index="2" Min="4.9958063755184412e-04" Max="1.0855250244140625e+03"/>
          <Range Index="3" Min="2.5000020980834961e+01" Max="8.2807574462890625e+02"/>
          <Range Index="4" Min="2.0000019073486328e+01" Max="6.4441705322265625e+02"/>
          <Range Index="5" Min="3.4044911444652826e-05" Max="6.9137792968750000e+02"/>
          <Range Index="6" Min="-4.6862286376953125e+02" Max="6.8994891357421875e+02"/>
          <Range Index="7" Min="0.0000000000000000e+00" Max="1.1000000000000000e+01"/>
          <Range Index="8" Min="7.8380107879638672e-06" Max="4.6556639671325684e+00"/>
          <Range Index="9" Min="4.2319297790527344e-06" Max="3.1415917873382568e+00"/>
        </Ranges>
      </Class>
      <Class ClassIndex="1">
        <Ranges>
          <Range Index="0" Min="1.9500362396240234e+01" Max="3.8437493896484375e+02"/>
          <Range Index="1" Min="1.1865115165710449e-01" Max="1.8773771667480469e+02"/>
          <Range Index="2" Min="2.1485660225152969e-02" Max="1.2819256591796875e+02"/>
          <Range Index="3" Min="2.5033721923828125e+01" Max="1.6515875244140625e+02"/>
          <Range Index="4" Min="2.0003250122070312e+01" Max="1.6159243774414062e+02"/>
          <Range Index="5" Min="3.5346699878573418e-03" Max="2.2669175720214844e+02"/>
          <Range Index="6" Min="-6.2649433135986328e+01" Max="8.5000434875488281e+01"/>
          <Range Index="7" Min="0.0000000000000000e+00" Max="4.0000000000000000e+00"/>
          <Range Index="8" Min="4.1717290878295898e-03" Max="3.5382046699523926e+00"/>
          <Range Index="9" Min="1.5912771224975586e-02" Max="3.1414916515350342e+00"/>
        </Ranges>
      </Class>
      <Class ClassIndex="2">
        <Ranges>
          <Range Index="0" Min="8.9027709960937500e+00" Max="1.3628377685546875e+03"/>
          <Range Index="1" Min="2.6746865478344262e-04" Max="1.0708330078125000e+03"/>
          <Range Index="2" Min="4.9958063755184412e-04" Max="1.0855250244140625e+03"/>
          <Range Index="3" Min="2.5000020980834961e+01" Max="8.2807574462890625e+02"/>
          <Range Index="4" Min="2.0000019073486328e+01" Max="6.4441705322265625e+02"/>
          <Range Index="5" Min="3.4044911444652826e-05" Max="6.9137792968750000e+02"/>
          <Range Index="6" Min="-4.6862286376953125e+02" Max="6.8994891357421875e+02"/>
          <Range Index="7" Min="0.0000000000000000e+00" Max="1.1000000000000000e+01"/>
          <Range Index="8" Min="7.8380107879638672e-06" Max="4.6556639671325684e+00"/>
          <Range Index="9" Min="4.2319297790527344e-06" Max="3.1415917873382568e+00"/>
        </Ranges>
      </Class>
    </Transform>
  </Transformations>
  <MVAPdfs/>
  <Weights>
    <Layout NLayers="5">
      <Layer Index="0" NNeurons="11">
        <Neuron NSynapses="10">
          9.4655282924997266e+00 1.1661061631717004e+01 5.3406343730994505e+00 -5.8183250484624438e-01 -1.1432712214250629e+00 -2.0220382199799179e+01 3.4890520947450758e+00 -1.5575380768933960e+00 -4.8450847440629934e+00 -3.3963603743103121e+00 
        </Neuron>
        <Neuron NSynapses="10">
          5.4503784901874939e+00 -2.3761493043907249e+00 -3.1392630390088034e+00 -7.6714772530541566e+00 -2.6249747404732715e+00 -2.5843550398909588e+01 7.8497842635921389e+00 3.0570304443485692e+00 -1.5390228362048503e-01 2.1673833636776290e+00 
        </Neuron>
        <Neuron NSynapses="10">
          -4.4179943098409185e+00 -1.8366088420386788e+01 6.2348973966496022e+00 1.8891927946323743e+00 3.0359984237646711e+00 -1.8793862847151512e+01 4.7610112418492943e+00 -7.3631196357922821e+00 -4.4349825638551019e+00 -2.4141858217816750e+00 
        </Neuron>
        <Neuron NSynapses="10">
          6.9472262853746392e+00 1.3437367766929560e+01 4.3945161999278453e+00 -4.1255460950821368e+00 2.8122061876407107e+00 -1.4707751868613334e+01 1.3939770453590570e+00 -2.3774301889798997e+00 -5.2114440021239874e+00 -6.3862964512331288e-01 
        </Neuron>
        <Neuron NSynapses="10">
          -2.8737584909120515e+00 1.6268237783554522e+00 1.4295193245146722e+01 1.1789935702604362e+00 6.6626385842002245e+00 4.1314980275649704e+00 -1.6943445681051124e+00 -1.0671931085992370e+01 -4.9722810118544727e+00 -3.1315565492598552e+00 
        </Neuron>
        <Neuron NSynapses="10">
          -1.7223601523319094e+00 1.9019130538587157e+00 4.0718308875078666e+00 2.7810139935503048e-01 6.0400195140645456e+00 2.6121536463534632e+01 3.6279178940845286e-01 -1.0144593940132868e+01 -3.4782871381975511e+00 -4.9305101898412138e+00 
        </Neuron>
        <Neuron NSynapses="10">
          -4.6467260127470942e+00 -5.0376014212098061e+00 7.9280149303110035e+00 -1.2732058320156185e+00 9.9031953304016174e+00 2.4568714446529274e+00 -5.2527102312440270e+00 -1.1406191986152182e+01 -4.2024169986935798e+00 -5.4629595136745364e+00 
        </Neuron>
        <Neuron NSynapses="10">
          4.7047220865597748e+00 -9.7343318247108035e-01 -1.1828324664681617e+01 7.0138895624983286e+00 -7.6441157789639576e+00 -5.3596587519433001e+00 1.5251982343803185e+01 6.0104638602040739e+00 1.0001456784454881e+01 7.8245069859499070e+00 
        </Neuron>
        <Neuron NSynapses="10">
          8.1177275890238008e+00 2.5520321905904151e+00 -6.1930352901513324e+00 -3.8247643556108840e-01 -3.4535640634695728e+00 -1.6072629151584183e+00 1.7037925760770246e+01 1.8065641267386690e+00 -1.7522253248729982e+00 -8.1036506400281390e+00 
        </Neuron>
        <Neuron NSynapses="10">
          1.4630850347423381e+00 1.7851024945701144e+00 2.1562448776690136e+01 -5.6268769022746650e+00 1.5010326337528591e+01 4.7805073323018821e+00 -2.9371281848774004e+01 -2.4232698028010969e+01 -1.5577385701590293e+01 -8.3495199648197627e+00 
        </Neuron>
        <Neuron NSynapses="10">
          1.5003563673896350e+01 7.7252901072068427e+00 -1.5925007472227314e+01 4.6306039893853859e+00 -1.9748188661406335e+01 -5.0577661872527266e+01 7.2900851758443324e+00 2.0821142614827352e+01 1.2221172872943601e+01 1.2394238667141849e+01 
        </Neuron>
      </Layer>
      <Layer Index="1" NNeurons="11">
        <Neuron NSynapses="10">
          -3.2096813836209384e+00 2.1696872268138092e+00 -1.4904042789672514e+00 7.0258794399172562e+00 -6.3164975504298726e-01 4.6450238123180458e+00 -1.0726868810070043e+00 1.2398935631255006e+00 9.1910584678181539e+00 -1.2174024708624371e+00 
        </Neuron>
        <Neuron NSynapses="10">
          -8.1885388963475358e-01 -6.2754563318072263e+00 8.0699055006498299e-01 -5.7942970569900272e+00 -8.5949206321472165e+00 -3.9850568811616500e+00 -1.2955069608078245e+00 2.6488181360754082e+00 -1.0292816825641264e+01 5.0511384869416243e-01 
        </Neuron>
        <Neuron NSynapses="10">
          -7.5323424967109398e-01 -5.0639612995976728e+00 -8.6340168871824829e+00 -5.4248162762553074e+00 -3.8515264794041579e+00 -1.1179746987613806e+00 2.6934389815408371e+00 -4.7038978794764450e+00 -4.4947331719188224e+00 1.0453799706288203e+00 
        </Neuron>
        <Neuron NSynapses="10">
          8.9012440811939075e-01 -6.8483768838188430e-01 -4.9986559575338312e+00 1.6799854363902098e+00 2.6491384769877202e+00 4.6473012997550951e+00 8.5458763073611355e-01 4.0979515057844634e-01 -1.4610722654099681e-01 -3.8788036586562380e-02 
        </Neuron>
        <Neuron NSynapses="10">
          -4.5035020707839655e+00 -5.8097130439591727e+00 -3.8738556765553289e+00 -4.2671336557298245e+00 -4.6504586650608513e+00 -6.1411979076525238e+00 2.8073502095565859e+00 -9.8729958248478555e-01 -4.3031656063081369e+00 -1.2408579023491810e+00 
        </Neuron>
        <Neuron NSynapses="10">
          1.5435563801673791e+00 -4.0986502446542383e+00 5.7760466098449266e+00 -1.5162229373367980e+01 -1.5147567543779161e+01 -6.6069403013841033e+00 -1.6212644901945115e+00 2.2632838965300665e-02 -2.6578068885367903e+00 -1.4338256895953905e+00 
        </Neuron>
        <Neuron NSynapses="10">
          3.6184597292926397e+00 7.2334197120809156e+00 5.4434159548391499e+00 6.1883852031306148e+00 5.0131134153107224e+00 4.9566172518046638e+00 -2.4318789126695304e+00 2.0697072677126673e+00 1.8592484503377547e+00 -2.0110937631254768e+00 
        </Neuron>
        <Neuron NSynapses="10">
          1.7241796076685241e+00 5.9053138112419956e-01 2.6382893964422003e+00 8.0505054176833006e+00 9.7023678466385803e+00 7.0769546523517235e+00 -2.6493477367815550e+00 4.3478395119419133e+00 6.0209816264897613e+00 -1.0451897530192318e+00 
        </Neuron>
        <Neuron NSynapses="10">
          2.4037998947620570e-01 -2.5072212541532548e+00 7.8162293172103825e-01 7.0672289681511136e-01 3.2188084709510072e+00 -3.7647858625463976e-01 -3.4611403662257820e+00 5.7290777858987321e+00 -6.6499097866214510e-02 -1.8347808872948423e+00 
        </Neuron>
        <Neuron NSynapses="10">
          1.4247649955283279e+00 -1.5055573229266910e+00 1.9712383466514916e+00 1.6049029495120393e+00 6.7801653372284711e+00 2.1437458257011159e+00 -3.8925408273827298e+00 3.5264451917111845e+00 2.0672132913992258e+00 3.1271470948371549e-01 
        </Neuron>
        <Neuron NSynapses="10">
          -1.0439413912065980e+00 -8.2679273640125484e+00 -5.5439400801732006e+00 -4.7758976570889704e+00 4.6469991555797691e-01 -4.7535009896780145e-01 -6.9748745433266801e-01 -6.9683487175462788e-01 -1.3845053071944513e+00 -2.8443690158630663e+00 
        </Neuron>
      </Layer>
      <Layer Index="2" NNeurons="11">
        <Neuron NSynapses="5">
          -8.0078382870011267e-01 -9.5387779468922373e-01 -5.6598938991900152e+00 -1.5987271504477674e+00 1.9896835280423550e+00 
        </Neuron>
        <Neuron NSynapses="5">
          -7.7456881633466013e-01 -2.3724895986431633e+00 -7.4935160595397718e+00 -2.9965123552092492e+00 -3.0485978700583916e+00 
        </Neuron>
        <Neuron NSynapses="5">
          3.1695618502891514e+00 -1.3362670733854207e+00 -5.5931313962463731e+00 -7.9090276262698778e+00 3.5487580367696951e+00 
        </Neuron>
        <Neuron NSynapses="5">
          -7.0910602234058269e+00 9.8024544013508985e-01 5.1240671054392113e+00 -3.5762047429337573e+00 -5.1548515159534594e+00 
        </Neuron>
        <Neuron NSynapses="5">
          -6.8377914103948569e+00 -3.6087823429375310e-01 2.8648904432710998e+00 -2.9044055204972450e+00 -5.3551671767339428e+00 
        </Neuron>
        <Neuron NSynapses="5">
          2.1274717097990190e+00 -2.2295004355840433e+00 -3.6524288129649931e+00 -1.4740110023342030e+00 -3.9184748363364008e+00 
        </Neuron>
        <Neuron NSynapses="5">
          6.3846926048106833e-01 2.3526664888261598e-01 4.7662358678203909e-01 8.2978241336902492e-01 8.9151074925275731e-01 
        </Neuron>
        <Neuron NSynapses="5">
          3.1385705885743893e+00 -4.3524587009132691e+00 -1.4799115835593317e+00 2.5644218816275526e+00 1.0465934378003983e+00 
        </Neuron>
        <Neuron NSynapses="5">
          -5.0157179895601649e+00 -2.2764063974411370e+00 6.8761841533257133e+00 -3.1926139210798201e+00 -3.0388390434112842e+00 
        </Neuron>
        <Neuron NSynapses="5">
          -6.7735295530867476e-02 -1.4283390750779517e+00 1.5818842002851305e+00 1.5358707079987854e+00 -2.8745837085396592e-01 
        </Neuron>
        <Neuron NSynapses="5">
          8.7539479907626261e-01 1.9271097608879300e+00 -3.4206665655187991e+00 -9.5257015445962057e-01 -8.3276906921080995e-01 
        </Neuron>
      </Layer>
      <Layer Index="3" NNeurons="6">
        <Neuron NSynapses="1">
          2.8060171815318253e+00 
        </Neuron>
        <Neuron NSynapses="1">
          2.6251341133194410e+00 
        </Neuron>
        <Neuron NSynapses="1">
          -4.4260932143326386e+00 
        </Neuron>
        <Neuron NSynapses="1">
          -4.3274185656829349e+00 
        </Neuron>
        <Neuron NSynapses="1">
          2.8965657273727636e+00 
        </Neuron>
        <Neuron NSynapses="1">
          -2.1179174289868334e+00 
        </Neuron>
      </Layer>
      <Layer Index="4" NNeurons="1">
        <Neuron NSynapses="0"/>
      </Layer>
    </Layout>
  </Weights>
</MethodSetup>
