<?xml version="1.0"?>
<MethodSetup Method="MLP::MLP_MM">
  <GeneralInfo>
    <Info name="TMVA Release" value="4.2.1 [262657]"/>
    <Info name="ROOT Release" value="6.06/01 [394753]"/>
    <Info name="Creator" value="mmackenz"/>
    <Info name="Date" value="Sun Dec  8 10:11:30 2019"/>
    <Info name="Host" value="Linux vocms0315.cern.ch 2.6.32-573.26.1.el6.x86_64 #1 SMP Wed May 4 09:23:05 CEST 2016 x86_64 x86_64 x86_64 GNU/Linux"/>
    <Info name="Dir" value="/uscms_data/d3/mmackenz/CMSSW_8_0_20/src/BLT/BLTAnalysis/tmva_training/training_background_ztautau_DY_mutau_8"/>
    <Info name="Training events" value="40380"/>
    <Info name="TrainingTime" value="2.47876645e+02"/>
    <Info name="AnalysisType" value="Classification"/>
  </GeneralInfo>
  <Options>
    <Option name="NCycles" modified="No">500</Option>
    <Option name="HiddenLayers" modified="Yes">10,5,3</Option>
    <Option name="NeuronType" modified="No">sigmoid</Option>
    <Option name="RandomSeed" modified="No">1</Option>
    <Option name="EstimatorType" modified="No">CE</Option>
    <Option name="NeuronInputType" modified="No">sum</Option>
    <Option name="V" modified="Yes">False</Option>
    <Option name="VerbosityLevel" modified="No">Default</Option>
    <Option name="VarTransform" modified="Yes">N</Option>
    <Option name="H" modified="Yes">False</Option>
    <Option name="CreateMVAPdfs" modified="No">False</Option>
    <Option name="IgnoreNegWeightsInTraining" modified="No">False</Option>
    <Option name="TrainingMethod" modified="No">BP</Option>
    <Option name="LearningRate" modified="No">2.000000e-02</Option>
    <Option name="DecayRate" modified="No">1.000000e-02</Option>
    <Option name="TestRate" modified="No">10</Option>
    <Option name="EpochMonitoring" modified="No">False</Option>
    <Option name="Sampling" modified="No">1.000000e+00</Option>
    <Option name="SamplingEpoch" modified="No">1.000000e+00</Option>
    <Option name="SamplingImportance" modified="No">1.000000e+00</Option>
    <Option name="SamplingTraining" modified="No">True</Option>
    <Option name="SamplingTesting" modified="No">False</Option>
    <Option name="ResetStep" modified="No">50</Option>
    <Option name="Tau" modified="No">3.000000e+00</Option>
    <Option name="BPMode" modified="No">sequential</Option>
    <Option name="BatchSize" modified="No">-1</Option>
    <Option name="ConvergenceImprove" modified="No">1.000000e-30</Option>
    <Option name="ConvergenceTests" modified="No">-1</Option>
    <Option name="UseRegulator" modified="No">False</Option>
    <Option name="UpdateLimit" modified="No">10000</Option>
    <Option name="CalculateErrors" modified="No">False</Option>
    <Option name="WeightRange" modified="No">1.000000e+00</Option>
  </Options>
  <Variables NVar="10">
    <Variable VarIndex="0" Expression="lepm" Label="lepm" Title="M_{ll}" Unit="GeV" Internal="lepm" Type="F" Min="1.05318174e+01" Max="9.84189148e+02"/>
    <Variable VarIndex="1" Expression="mtone" Label="mtone" Title="MT(MET,l1)" Unit="" Internal="mtone" Type="F" Min="1.41431915e-03" Max="4.06222473e+02"/>
    <Variable VarIndex="2" Expression="mttwo" Label="mttwo" Title="MT(MET,l2)" Unit="" Internal="mttwo" Type="F" Min="8.29991826e-04" Max="5.25310120e+02"/>
    <Variable VarIndex="3" Expression="leponept" Label="leponept" Title="pT_{l1}" Unit="" Internal="leponept" Type="F" Min="2.50000210e+01" Max="5.06283691e+02"/>
    <Variable VarIndex="4" Expression="leptwopt" Label="leptwopt" Title="pT_{l2}" Unit="" Internal="leptwopt" Type="F" Min="2.00000248e+01" Max="4.51983154e+02"/>
    <Variable VarIndex="5" Expression="pxivis" Label="pxivis" Title="p^{vis}_{#xi}" Unit="" Internal="pxivis" Type="F" Min="7.64965836e-04" Max="5.24814636e+02"/>
    <Variable VarIndex="6" Expression="pxiinv" Label="pxiinv" Title="p^{inv}_{#xi}" Unit="" Internal="pxiinv" Type="F" Min="-1.69245148e+02" Max="4.36358063e+02"/>
    <Variable VarIndex="7" Expression="njets" Label="njets" Title="nJets" Unit="" Internal="njets" Type="F" Min="0.00000000e+00" Max="8.00000000e+00"/>
    <Variable VarIndex="8" Expression="lepdeltaeta" Label="lepdeltaeta" Title="#Delta#eta_{ll}" Unit="" Internal="lepdeltaeta" Type="F" Min="7.03334808e-06" Max="4.62210655e+00"/>
    <Variable VarIndex="9" Expression="lepdeltaphi" Label="lepdeltaphi" Title="#Delta#phi_{ll}" Unit="" Internal="lepdeltaphi" Type="F" Min="3.99351120e-04" Max="3.14157009e+00"/>
  </Variables>
  <Spectators NSpec="6">
    <Spectator SpecIndex="0" Expression="leppt" Label="leppt" Title="Pt_{ll}" Unit="GeV" Internal="leppt" Type="F" Min="9.31768492e-03" Max="5.30542603e+02"/>
    <Spectator SpecIndex="1" Expression="met" Label="met" Title="MET" Unit="GeV" Internal="met" Type="F" Min="7.96840191e-02" Max="4.69120697e+02"/>
    <Spectator SpecIndex="2" Expression="lepdeltar" Label="lepdeltar" Title="#DeltaR_{ll}" Unit="" Internal="lepdeltar" Type="F" Min="3.82520586e-01" Max="5.43955612e+00"/>
    <Spectator SpecIndex="3" Expression="fulleventweight" Label="fulleventweight" Title="fullEventWeight" Unit="" Internal="fulleventweight" Type="F" Min="-1.49285945e-04" Max="3.01980297e-04"/>
    <Spectator SpecIndex="4" Expression="eventweight" Label="eventweight" Title="eventWeight" Unit="" Internal="eventweight" Type="F" Min="-1.15235543e+00" Max="1.22874701e+00"/>
    <Spectator SpecIndex="5" Expression="eventcategory" Label="eventcategory" Title="eventCategory" Unit="" Internal="eventcategory" Type="F" Min="2.00000000e+00" Max="3.40000000e+01"/>
  </Spectators>
  <Classes NClass="2">
    <Class Name="Background" Index="0"/>
    <Class Name="Signal" Index="1"/>
  </Classes>
  <Transformations NTransformations="1">
    <Transform Name="Normalize">
      <Selection>
        <Input NInputs="10">
          <Input Type="Variable" Label="lepm" Expression="lepm"/>
          <Input Type="Variable" Label="mtone" Expression="mtone"/>
          <Input Type="Variable" Label="mttwo" Expression="mttwo"/>
          <Input Type="Variable" Label="leponept" Expression="leponept"/>
          <Input Type="Variable" Label="leptwopt" Expression="leptwopt"/>
          <Input Type="Variable" Label="pxivis" Expression="pxivis"/>
          <Input Type="Variable" Label="pxiinv" Expression="pxiinv"/>
          <Input Type="Variable" Label="njets" Expression="njets"/>
          <Input Type="Variable" Label="lepdeltaeta" Expression="lepdeltaeta"/>
          <Input Type="Variable" Label="lepdeltaphi" Expression="lepdeltaphi"/>
        </Input>
        <Output NOutputs="10">
          <Output Type="Variable" Label="lepm" Expression="lepm"/>
          <Output Type="Variable" Label="mtone" Expression="mtone"/>
          <Output Type="Variable" Label="mttwo" Expression="mttwo"/>
          <Output Type="Variable" Label="leponept" Expression="leponept"/>
          <Output Type="Variable" Label="leptwopt" Expression="leptwopt"/>
          <Output Type="Variable" Label="pxivis" Expression="pxivis"/>
          <Output Type="Variable" Label="pxiinv" Expression="pxiinv"/>
          <Output Type="Variable" Label="njets" Expression="njets"/>
          <Output Type="Variable" Label="lepdeltaeta" Expression="lepdeltaeta"/>
          <Output Type="Variable" Label="lepdeltaphi" Expression="lepdeltaphi"/>
        </Output>
      </Selection>
      <Class ClassIndex="0">
        <Ranges>
          <Range Index="0" Min="1.0531817436218262e+01" Max="9.8418914794921875e+02"/>
          <Range Index="1" Min="1.4143191510811448e-03" Max="4.0622247314453125e+02"/>
          <Range Index="2" Min="8.2999182632192969e-04" Max="5.2531011962890625e+02"/>
          <Range Index="3" Min="2.5000020980834961e+01" Max="5.0628369140625000e+02"/>
          <Range Index="4" Min="2.0000024795532227e+01" Max="4.5198315429687500e+02"/>
          <Range Index="5" Min="7.6496583642438054e-04" Max="5.2481463623046875e+02"/>
          <Range Index="6" Min="-1.6924514770507812e+02" Max="4.3635806274414062e+02"/>
          <Range Index="7" Min="0.0000000000000000e+00" Max="8.0000000000000000e+00"/>
          <Range Index="8" Min="7.0333480834960938e-06" Max="4.6221065521240234e+00"/>
          <Range Index="9" Min="3.9935111999511719e-04" Max="3.1415700912475586e+00"/>
        </Ranges>
      </Class>
      <Class ClassIndex="1">
        <Ranges>
          <Range Index="0" Min="1.9687852859497070e+01" Max="4.6406939697265625e+02"/>
          <Range Index="1" Min="8.9908421039581299e-02" Max="1.4705868530273438e+02"/>
          <Range Index="2" Min="1.0107635520398617e-02" Max="1.2553588867187500e+02"/>
          <Range Index="3" Min="2.5033721923828125e+01" Max="2.3912149047851562e+02"/>
          <Range Index="4" Min="2.0003250122070312e+01" Max="1.6159243774414062e+02"/>
          <Range Index="5" Min="1.1482260888442397e-03" Max="2.3780343627929688e+02"/>
          <Range Index="6" Min="-5.8302822113037109e+01" Max="8.5000434875488281e+01"/>
          <Range Index="7" Min="0.0000000000000000e+00" Max="4.0000000000000000e+00"/>
          <Range Index="8" Min="3.1146407127380371e-04" Max="3.5382046699523926e+00"/>
          <Range Index="9" Min="1.5912771224975586e-02" Max="3.1415567398071289e+00"/>
        </Ranges>
      </Class>
      <Class ClassIndex="2">
        <Ranges>
          <Range Index="0" Min="1.0531817436218262e+01" Max="9.8418914794921875e+02"/>
          <Range Index="1" Min="1.4143191510811448e-03" Max="4.0622247314453125e+02"/>
          <Range Index="2" Min="8.2999182632192969e-04" Max="5.2531011962890625e+02"/>
          <Range Index="3" Min="2.5000020980834961e+01" Max="5.0628369140625000e+02"/>
          <Range Index="4" Min="2.0000024795532227e+01" Max="4.5198315429687500e+02"/>
          <Range Index="5" Min="7.6496583642438054e-04" Max="5.2481463623046875e+02"/>
          <Range Index="6" Min="-1.6924514770507812e+02" Max="4.3635806274414062e+02"/>
          <Range Index="7" Min="0.0000000000000000e+00" Max="8.0000000000000000e+00"/>
          <Range Index="8" Min="7.0333480834960938e-06" Max="4.6221065521240234e+00"/>
          <Range Index="9" Min="3.9935111999511719e-04" Max="3.1415700912475586e+00"/>
        </Ranges>
      </Class>
    </Transform>
  </Transformations>
  <MVAPdfs/>
  <Weights>
    <Layout NLayers="5">
      <Layer Index="0" NNeurons="11">
        <Neuron NSynapses="10">
          2.2514287926240453e+00 8.7087233035703804e+00 8.5474531245061769e-01 -4.3733014916263011e+00 -2.4625421274724967e+01 8.3367993526722761e-01 -2.9239132504198557e+00 2.5898395876717775e+01 -1.8082748363877457e+01 4.1106067676442883e+00 
        </Neuron>
        <Neuron NSynapses="10">
          -3.1765671198784062e-01 -4.3519451341445867e+00 -4.7195246254934409e+00 -6.3139757999252284e+00 -4.5637347546118621e+00 3.3809379512383204e+00 2.6255901841011444e+00 1.0188199338340537e+01 -4.7668562966580619e-01 -3.7879064053148190e+00 
        </Neuron>
        <Neuron NSynapses="10">
          1.9776192304180376e+00 -1.3901672519317689e+00 6.0964966361011017e+00 6.3896693530646571e+00 4.3426362696838776e+00 1.3426062304490036e-01 8.6969547186103657e+00 -2.0804669566911955e+00 -2.0072928590832331e+00 -6.9507154129451090e+00 
        </Neuron>
        <Neuron NSynapses="10">
          6.3151265721706329e-01 1.3655043184859634e+01 -5.1377457501412955e+00 -1.4540791266648673e+01 -1.5919875069775454e+01 8.2801526704642336e-01 -3.1922427125693589e+00 3.3762905302596948e+01 -3.1174878965849064e+01 9.7140190693548298e+00 
        </Neuron>
        <Neuron NSynapses="10">
          -2.4515041313579875e+00 1.8401221983215914e+00 3.0578587296900119e+00 2.7976176224449900e+00 -1.5751204329781981e+01 2.2084509110017611e-01 -2.7672310028104796e+00 5.0168618496087269e+00 4.0703900554636432e+00 3.7040310021557499e+00 
        </Neuron>
        <Neuron NSynapses="10">
          5.9724811459311322e-01 -2.6260855217899906e+00 -3.8142370139716242e+00 3.0437927152291904e+00 1.1213375338941773e+01 -1.3820101081414826e+00 -1.3097981255597755e+00 -2.0109112671761455e+01 1.6195517099141558e+01 -4.1224505136357292e+00 
        </Neuron>
        <Neuron NSynapses="10">
          -4.0559556397167649e+00 1.0059999280691518e+00 1.1827699054520759e+00 1.4161004162353814e+00 5.6219650165161517e-01 -3.1975748160325019e+00 -1.6379972158446345e+00 -8.6508330116006338e+00 -9.6264049078378520e+00 1.1584494335311271e+00 
        </Neuron>
        <Neuron NSynapses="10">
          2.4441800754698466e+00 -4.6746845919993163e+00 9.9189661211610929e+00 2.5578843805345168e+00 -1.3077792386467832e+00 -3.6748423576626443e+00 -3.2700792667881742e+00 -7.8224208932546837e+00 6.3264568032484663e+00 1.4893366776852693e+01 
        </Neuron>
        <Neuron NSynapses="10">
          1.4442905908404995e+01 -2.4645482096103932e+00 1.7984436949323124e+00 -7.7858061606268536e-01 -3.4291959466467157e+00 1.4998090781253695e+00 -1.1225349238898412e+00 3.4193268397613719e+00 -2.9125379277531560e+00 -3.2987402021996992e+00 
        </Neuron>
        <Neuron NSynapses="10">
          -3.7059458188299796e+00 1.3166785339665799e+00 -8.8456761262011671e-02 -3.2978681480678373e+00 1.1691052571808749e+00 4.6538156850453953e+00 -7.0560399776892035e+00 -6.7299683611614043e+00 3.1187901138412683e-01 -5.7485589166255000e+00 
        </Neuron>
        <Neuron NSynapses="10">
          8.7463521122578747e-01 7.0869899299520318e+00 3.7918197228182833e+00 -7.7582890407942333e+00 -4.4008120963164245e+01 -5.3574488667907139e-01 -3.4081075866598485e+00 4.3122377610838306e+01 -2.8702331038893739e+01 1.9433744238070368e+01 
        </Neuron>
      </Layer>
      <Layer Index="1" NNeurons="11">
        <Neuron NSynapses="5">
          -6.3387675729762760e+00 4.6311174466062663e+00 -7.0713753084584086e-01 -1.1413615310496030e+00 -5.6758338927471019e+00 
        </Neuron>
        <Neuron NSynapses="5">
          4.2272374959454986e+00 4.1564206943037600e+00 -1.7595266822420519e+00 1.1899032932278324e+00 -1.0714102746082024e+00 
        </Neuron>
        <Neuron NSynapses="5">
          -4.7128505463101913e+00 5.0377351379978128e+00 1.4220631015846195e+00 2.6624011049801988e+00 -3.1189919685069647e+00 
        </Neuron>
        <Neuron NSynapses="5">
          -3.2461746001476675e+00 2.9973570906449134e+00 2.7124201703009865e+00 -3.3072213858582278e+00 -1.0955780985776430e-01 
        </Neuron>
        <Neuron NSynapses="5">
          1.6985578585771275e+00 -8.9701363075630969e+00 8.2631874176858044e+00 -7.6104799926455762e+00 -5.2472155597588488e+00 
        </Neuron>
        <Neuron NSynapses="5">
          -1.1901802836542563e+00 2.0941264443868497e+00 -6.2062473981742974e+00 1.4019032638339493e+00 -1.4369455637373358e+00 
        </Neuron>
        <Neuron NSynapses="5">
          -2.6451600868550011e+00 2.3403204815685305e-01 -3.2077193809025989e-01 -5.6853789946413436e+00 -5.8432155911363894e+00 
        </Neuron>
        <Neuron NSynapses="5">
          3.1280535333920323e+00 3.6130581249820688e+00 -1.0430720562770434e+01 4.9185759581721955e+00 4.1775945293702179e+00 
        </Neuron>
        <Neuron NSynapses="5">
          -7.3192398823856584e+00 -2.4403300202114204e+00 5.1763816688347299e+00 -3.8217124742972306e+00 1.7709998020613502e+00 
        </Neuron>
        <Neuron NSynapses="5">
          -3.0175237436441926e+00 -1.4492878745332392e+00 -7.7987938618180754e+00 5.3126306052596650e+00 2.5598582463641466e+00 
        </Neuron>
        <Neuron NSynapses="5">
          -1.7579991755124735e+00 -4.0876727443792182e+00 -3.4722552716395625e+00 1.6108372176999308e+00 -4.3361285459249882e-01 
        </Neuron>
      </Layer>
      <Layer Index="2" NNeurons="6">
        <Neuron NSynapses="3">
          -6.2707120416845354e+00 -5.3321094572824697e+00 -3.8112413297052177e+00 
        </Neuron>
        <Neuron NSynapses="3">
          -4.6149974007669998e+00 -4.0509923915512447e+00 6.7690323304507594e+00 
        </Neuron>
        <Neuron NSynapses="3">
          5.3501147991810667e+00 1.1781734342742756e+00 1.0374798297181499e-01 
        </Neuron>
        <Neuron NSynapses="3">
          -3.4173985591116303e+00 2.7174221494476825e-01 1.6253242201117639e+00 
        </Neuron>
        <Neuron NSynapses="3">
          -1.6137454425242823e+00 -6.8537287787558199e-01 -2.6120453779909600e+00 
        </Neuron>
        <Neuron NSynapses="3">
          2.7848789428051211e-02 8.0856867157640816e-02 -3.4965977371864381e+00 
        </Neuron>
      </Layer>
      <Layer Index="3" NNeurons="4">
        <Neuron NSynapses="1">
          -4.3404980959316779e+00 
        </Neuron>
        <Neuron NSynapses="1">
          -2.4019005794927080e+00 
        </Neuron>
        <Neuron NSynapses="1">
          -6.2370499602369271e+00 
        </Neuron>
        <Neuron NSynapses="1">
          2.4932481041808132e+00 
        </Neuron>
      </Layer>
      <Layer Index="4" NNeurons="1">
        <Neuron NSynapses="0"/>
      </Layer>
    </Layout>
  </Weights>
</MethodSetup>
