<?xml version="1.0"?>
<MethodSetup Method="MLP::MLP_MM">
  <GeneralInfo>
    <Info name="TMVA Release" value="4.2.1 [262657]"/>
    <Info name="ROOT Release" value="6.06/01 [394753]"/>
    <Info name="Creator" value="mmackenz"/>
    <Info name="Date" value="Sat Dec  7 11:51:03 2019"/>
    <Info name="Host" value="Linux vocms0315.cern.ch 2.6.32-573.26.1.el6.x86_64 #1 SMP Wed May 4 09:23:05 CEST 2016 x86_64 x86_64 x86_64 GNU/Linux"/>
    <Info name="Dir" value="/uscms_data/d3/mmackenz/CMSSW_8_0_20/src/BLT/BLTAnalysis/tmva_training/training_background_ztautau_mutau_8"/>
    <Info name="Training events" value="171998"/>
    <Info name="TrainingTime" value="1.44433600e+03"/>
    <Info name="AnalysisType" value="Classification"/>
  </GeneralInfo>
  <Options>
    <Option name="NCycles" modified="No">500</Option>
    <Option name="HiddenLayers" modified="Yes">10,10,5</Option>
    <Option name="NeuronType" modified="No">sigmoid</Option>
    <Option name="RandomSeed" modified="No">1</Option>
    <Option name="EstimatorType" modified="No">CE</Option>
    <Option name="NeuronInputType" modified="No">sum</Option>
    <Option name="V" modified="Yes">False</Option>
    <Option name="VerbosityLevel" modified="No">Default</Option>
    <Option name="VarTransform" modified="Yes">N</Option>
    <Option name="H" modified="Yes">False</Option>
    <Option name="CreateMVAPdfs" modified="No">False</Option>
    <Option name="IgnoreNegWeightsInTraining" modified="No">False</Option>
    <Option name="TrainingMethod" modified="No">BP</Option>
    <Option name="LearningRate" modified="No">2.000000e-02</Option>
    <Option name="DecayRate" modified="No">1.000000e-02</Option>
    <Option name="TestRate" modified="No">10</Option>
    <Option name="EpochMonitoring" modified="No">False</Option>
    <Option name="Sampling" modified="No">1.000000e+00</Option>
    <Option name="SamplingEpoch" modified="No">1.000000e+00</Option>
    <Option name="SamplingImportance" modified="No">1.000000e+00</Option>
    <Option name="SamplingTraining" modified="No">True</Option>
    <Option name="SamplingTesting" modified="No">False</Option>
    <Option name="ResetStep" modified="No">50</Option>
    <Option name="Tau" modified="No">3.000000e+00</Option>
    <Option name="BPMode" modified="No">sequential</Option>
    <Option name="BatchSize" modified="No">-1</Option>
    <Option name="ConvergenceImprove" modified="No">1.000000e-30</Option>
    <Option name="ConvergenceTests" modified="No">-1</Option>
    <Option name="UseRegulator" modified="No">False</Option>
    <Option name="UpdateLimit" modified="No">10000</Option>
    <Option name="CalculateErrors" modified="No">False</Option>
    <Option name="WeightRange" modified="No">1.000000e+00</Option>
  </Options>
  <Variables NVar="10">
    <Variable VarIndex="0" Expression="lepm" Label="lepm" Title="M_{ll}" Unit="GeV" Internal="lepm" Type="F" Min="9.86599064e+00" Max="1.33537744e+03"/>
    <Variable VarIndex="1" Expression="mtone" Label="mtone" Title="MT(MET,l1)" Unit="" Internal="mtone" Type="F" Min="1.70723739e-04" Max="1.05942859e+03"/>
    <Variable VarIndex="2" Expression="mttwo" Label="mttwo" Title="MT(MET,l2)" Unit="" Internal="mttwo" Type="F" Min="5.29918296e-04" Max="1.08552502e+03"/>
    <Variable VarIndex="3" Expression="leponept" Label="leponept" Title="pT_{l1}" Unit="" Internal="leponept" Type="F" Min="2.50000210e+01" Max="6.56955688e+02"/>
    <Variable VarIndex="4" Expression="leptwopt" Label="leptwopt" Title="pT_{l2}" Unit="" Internal="leptwopt" Type="F" Min="2.00000114e+01" Max="6.29145081e+02"/>
    <Variable VarIndex="5" Expression="pxivis" Label="pxivis" Title="p^{vis}_{#xi}" Unit="" Internal="pxivis" Type="F" Min="1.18135169e-04" Max="6.74591003e+02"/>
    <Variable VarIndex="6" Expression="pxiinv" Label="pxiinv" Title="p^{inv}_{#xi}" Unit="" Internal="pxiinv" Type="F" Min="-8.32857910e+02" Max="6.93421387e+02"/>
    <Variable VarIndex="7" Expression="njets" Label="njets" Title="nJets" Unit="" Internal="njets" Type="F" Min="0.00000000e+00" Max="1.00000000e+01"/>
    <Variable VarIndex="8" Expression="lepdeltaeta" Label="lepdeltaeta" Title="#Delta#eta_{ll}" Unit="" Internal="lepdeltaeta" Type="F" Min="0.00000000e+00" Max="4.64390421e+00"/>
    <Variable VarIndex="9" Expression="lepdeltaphi" Label="lepdeltaphi" Title="#Delta#phi_{ll}" Unit="" Internal="lepdeltaphi" Type="F" Min="7.62939453e-05" Max="3.14159036e+00"/>
  </Variables>
  <Spectators NSpec="6">
    <Spectator SpecIndex="0" Expression="leppt" Label="leppt" Title="Pt_{ll}" Unit="GeV" Internal="leppt" Type="F" Min="9.31768492e-03" Max="6.77158813e+02"/>
    <Spectator SpecIndex="1" Expression="met" Label="met" Title="MET" Unit="GeV" Internal="met" Type="F" Min="9.24693942e-02" Max="1.09546411e+03"/>
    <Spectator SpecIndex="2" Expression="lepdeltar" Label="lepdeltar" Title="#DeltaR_{ll}" Unit="" Internal="lepdeltar" Type="F" Min="3.10872883e-01" Max="5.42631769e+00"/>
    <Spectator SpecIndex="3" Expression="fulleventweight" Label="fulleventweight" Title="fullEventWeight" Unit="" Internal="fulleventweight" Type="F" Min="-1.91965970e-04" Max="1.18103391e-03"/>
    <Spectator SpecIndex="4" Expression="eventweight" Label="eventweight" Title="eventWeight" Unit="" Internal="eventweight" Type="F" Min="-1.26402795e+00" Max="1.32183027e+00"/>
    <Spectator SpecIndex="5" Expression="eventcategory" Label="eventcategory" Title="eventCategory" Unit="" Internal="eventcategory" Type="F" Min="1.00000000e+00" Max="3.40000000e+01"/>
  </Spectators>
  <Classes NClass="2">
    <Class Name="Background" Index="0"/>
    <Class Name="Signal" Index="1"/>
  </Classes>
  <Transformations NTransformations="1">
    <Transform Name="Normalize">
      <Selection>
        <Input NInputs="10">
          <Input Type="Variable" Label="lepm" Expression="lepm"/>
          <Input Type="Variable" Label="mtone" Expression="mtone"/>
          <Input Type="Variable" Label="mttwo" Expression="mttwo"/>
          <Input Type="Variable" Label="leponept" Expression="leponept"/>
          <Input Type="Variable" Label="leptwopt" Expression="leptwopt"/>
          <Input Type="Variable" Label="pxivis" Expression="pxivis"/>
          <Input Type="Variable" Label="pxiinv" Expression="pxiinv"/>
          <Input Type="Variable" Label="njets" Expression="njets"/>
          <Input Type="Variable" Label="lepdeltaeta" Expression="lepdeltaeta"/>
          <Input Type="Variable" Label="lepdeltaphi" Expression="lepdeltaphi"/>
        </Input>
        <Output NOutputs="10">
          <Output Type="Variable" Label="lepm" Expression="lepm"/>
          <Output Type="Variable" Label="mtone" Expression="mtone"/>
          <Output Type="Variable" Label="mttwo" Expression="mttwo"/>
          <Output Type="Variable" Label="leponept" Expression="leponept"/>
          <Output Type="Variable" Label="leptwopt" Expression="leptwopt"/>
          <Output Type="Variable" Label="pxivis" Expression="pxivis"/>
          <Output Type="Variable" Label="pxiinv" Expression="pxiinv"/>
          <Output Type="Variable" Label="njets" Expression="njets"/>
          <Output Type="Variable" Label="lepdeltaeta" Expression="lepdeltaeta"/>
          <Output Type="Variable" Label="lepdeltaphi" Expression="lepdeltaphi"/>
        </Output>
      </Selection>
      <Class ClassIndex="0">
        <Ranges>
          <Range Index="0" Min="9.8659906387329102e+00" Max="1.3353774414062500e+03"/>
          <Range Index="1" Min="1.7072373884730041e-04" Max="1.0594285888671875e+03"/>
          <Range Index="2" Min="5.2991829579696059e-04" Max="1.0855250244140625e+03"/>
          <Range Index="3" Min="2.5000020980834961e+01" Max="6.5695568847656250e+02"/>
          <Range Index="4" Min="2.0000011444091797e+01" Max="6.2914508056640625e+02"/>
          <Range Index="5" Min="1.1813516903202981e-04" Max="6.7459100341796875e+02"/>
          <Range Index="6" Min="-8.3285791015625000e+02" Max="6.9342138671875000e+02"/>
          <Range Index="7" Min="0.0000000000000000e+00" Max="1.0000000000000000e+01"/>
          <Range Index="8" Min="0.0000000000000000e+00" Max="4.6439042091369629e+00"/>
          <Range Index="9" Min="7.6293945312500000e-05" Max="3.1415903568267822e+00"/>
        </Ranges>
      </Class>
      <Class ClassIndex="1">
        <Ranges>
          <Range Index="0" Min="1.9500362396240234e+01" Max="3.8437493896484375e+02"/>
          <Range Index="1" Min="8.9908421039581299e-02" Max="1.9860649108886719e+02"/>
          <Range Index="2" Min="1.0107635520398617e-02" Max="1.2553588867187500e+02"/>
          <Range Index="3" Min="2.5046958923339844e+01" Max="2.3912149047851562e+02"/>
          <Range Index="4" Min="2.0003250122070312e+01" Max="1.6159243774414062e+02"/>
          <Range Index="5" Min="3.5346699878573418e-03" Max="2.3780343627929688e+02"/>
          <Range Index="6" Min="-6.2148483276367188e+01" Max="8.5000434875488281e+01"/>
          <Range Index="7" Min="0.0000000000000000e+00" Max="4.0000000000000000e+00"/>
          <Range Index="8" Min="4.8703849315643311e-03" Max="3.5382046699523926e+00"/>
          <Range Index="9" Min="1.5912771224975586e-02" Max="3.1414916515350342e+00"/>
        </Ranges>
      </Class>
      <Class ClassIndex="2">
        <Ranges>
          <Range Index="0" Min="9.8659906387329102e+00" Max="1.3353774414062500e+03"/>
          <Range Index="1" Min="1.7072373884730041e-04" Max="1.0594285888671875e+03"/>
          <Range Index="2" Min="5.2991829579696059e-04" Max="1.0855250244140625e+03"/>
          <Range Index="3" Min="2.5000020980834961e+01" Max="6.5695568847656250e+02"/>
          <Range Index="4" Min="2.0000011444091797e+01" Max="6.2914508056640625e+02"/>
          <Range Index="5" Min="1.1813516903202981e-04" Max="6.7459100341796875e+02"/>
          <Range Index="6" Min="-8.3285791015625000e+02" Max="6.9342138671875000e+02"/>
          <Range Index="7" Min="0.0000000000000000e+00" Max="1.0000000000000000e+01"/>
          <Range Index="8" Min="0.0000000000000000e+00" Max="4.6439042091369629e+00"/>
          <Range Index="9" Min="7.6293945312500000e-05" Max="3.1415903568267822e+00"/>
        </Ranges>
      </Class>
    </Transform>
  </Transformations>
  <MVAPdfs/>
  <Weights>
    <Layout NLayers="5">
      <Layer Index="0" NNeurons="11">
        <Neuron NSynapses="10">
          5.5065903440363897e+01 3.5232006046605576e+01 2.7821151046502277e+00 2.0983401674326878e-02 -1.5658383372240834e+00 6.2607888422475499e-01 -1.6435290183834272e+00 1.0475264512336345e+01 8.3967758507101991e+00 -4.4675137793050035e-01 
        </Neuron>
        <Neuron NSynapses="10">
          1.1574961001556192e+01 -6.3104214785269290e+00 8.3125582318658653e-01 -6.1828754061587157e+00 -8.9507364736538175e+00 1.1676493732275919e+00 8.8386584934236883e+00 3.4670581879994572e+01 4.2310137299015558e+01 1.0273382026058989e+01 
        </Neuron>
        <Neuron NSynapses="10">
          1.9239448287150646e-01 -2.9475130760201349e+01 3.3527484857371301e+00 6.2727229033689283e-02 2.3055492320050490e+00 2.8993295402045853e+00 1.7093037014331962e+01 6.8263832903961541e+00 3.7000623323979568e+01 2.2054565214118194e+00 
        </Neuron>
        <Neuron NSynapses="10">
          3.3770687794447319e+01 3.7610495421734377e+01 1.9438412165792018e+00 -2.8047098303952978e+00 -4.2612160149803033e+00 2.1349543784890783e+00 -6.5623159271021754e+00 2.5702063827880046e+01 2.1297681468499583e+01 7.7763671362949180e+00 
        </Neuron>
        <Neuron NSynapses="10">
          1.3325037744334683e+01 1.5291303369608695e+01 4.5149895667728455e+00 8.6234044780631092e-01 1.2680698663282568e+01 3.6752378585252035e+00 2.1523193586903235e+00 -1.7850268001290132e+01 -1.8621489755916766e+01 1.0243661278999645e+00 
        </Neuron>
        <Neuron NSynapses="10">
          -4.0419871521650307e+01 -8.1544204585075111e+00 1.0452295278946151e+00 2.4514976542102702e+00 1.5597131683514080e+01 4.5284641363640175e+00 5.4684936558160713e-01 -4.0508697437243555e+01 -3.0062591394708132e+01 -5.8999933535825644e-01 
        </Neuron>
        <Neuron NSynapses="10">
          3.3246078714447624e+00 -2.6084179265217005e+00 -3.1499856249030078e-01 6.2215642383336234e-01 7.6221340192707991e+00 8.1940272436020856e-01 -4.9473307827261355e+00 -1.9707235112411347e+01 -1.3746708407327167e+01 -1.1854501810237714e+00 
        </Neuron>
        <Neuron NSynapses="10">
          4.3078889497745534e+00 -1.9012534149469476e+00 1.8353605238457782e+00 3.2680008076980847e+00 -1.5045281215518376e+01 5.4864090792344677e-01 6.6013011448534638e+00 2.5016417838562699e+01 9.5846394690728456e+00 1.1680841205828049e+01 
        </Neuron>
        <Neuron NSynapses="10">
          3.3796860564130600e+00 2.6229414406669020e+00 -1.9513937033206807e-02 3.6743428214195148e+00 -1.6756557993375782e+00 -4.6479712429971896e+00 -5.6720404332910332e+00 2.3646151322275868e+00 6.4111259482190528e+00 -1.0519467624721200e+01 
        </Neuron>
        <Neuron NSynapses="10">
          -4.9197826432948109e+00 6.4896967796578531e-01 6.2067894338100418e+00 -9.8228725741137435e+00 2.2938401010862293e+01 8.5249983809304641e+00 -3.0310045672554640e+01 -2.1697204979241874e+01 -1.4905579334989818e+01 -1.0302158634026464e+01 
        </Neuron>
        <Neuron NSynapses="10">
          7.2433085199902607e+01 4.1990446586289444e+01 -3.9974106744332953e+00 1.2104256562081261e+00 -3.8484200461097423e+01 -8.6406967711408562e+00 2.3611976781771999e+00 7.9162104160807758e+01 7.6331000132177820e+01 9.8389481237063130e+00 
        </Neuron>
      </Layer>
      <Layer Index="1" NNeurons="11">
        <Neuron NSynapses="10">
          -1.0788357269923715e+01 1.8810032606775611e+01 6.5896278338197982e+00 1.3366106502110224e+01 4.3695936855412016e+00 1.2805746622718392e+01 -2.6732987593313848e+00 1.7882782420062032e+01 5.0264600312819283e+00 -1.5683429661553063e+00 
        </Neuron>
        <Neuron NSynapses="10">
          7.4553991887313318e+00 -6.8882322213571046e+00 1.8503538584935149e+00 -1.1865386332471658e+01 1.3835519028311918e+00 -3.3883591663823407e+00 -8.9334216409097311e-01 -5.9142041329788295e+00 -1.5647391114316202e+01 6.7376032124472274e-01 
        </Neuron>
        <Neuron NSynapses="10">
          -3.3807388806047800e-01 -3.1632601350849150e+00 -1.7822412157374448e-01 -2.3420850710661787e+00 -1.1351249222764617e-01 1.0667906075192140e+00 1.7933014009891148e+00 -3.4012977235193196e+00 -3.5845461421758967e-01 1.6704349083720089e+00 
        </Neuron>
        <Neuron NSynapses="10">
          -1.4713324938425651e+00 -1.4034646159059172e+00 -1.0991178809495017e+00 5.1171331870797800e+00 -7.3752094380039006e+00 5.6499611260807242e-02 8.4263596253944884e-01 1.6620767840344279e+00 5.7746183240730007e+00 2.9434235118519288e-02 
        </Neuron>
        <Neuron NSynapses="10">
          -2.6063433550443103e+00 -9.4400181689527756e+00 -4.0550680092727900e+00 -8.7500557599199933e+00 -5.9959190482218281e+00 -5.7629501036534627e+00 1.9243984208283416e+00 -7.3258968248246923e+00 -3.3225049460685905e+00 -1.8573270425786914e+00 
        </Neuron>
        <Neuron NSynapses="10">
          -1.1864033515035581e+00 -3.9358118240298441e+00 -1.2156572833017709e+00 -5.3286526090460269e+00 -4.5531294697505800e+00 -2.2776320100945471e+00 -6.2681980177105334e-01 -4.0791704609169432e+00 -3.2111565453534423e+00 -7.3553122937434301e-01 
        </Neuron>
        <Neuron NSynapses="10">
          1.4345566222952528e+00 2.7768316205376227e+00 2.4321158135732781e+00 2.6291238085002240e+00 -2.3043641088042230e+00 -5.2432421571142900e+00 -6.0929691938874857e+00 2.8733286715114397e+00 5.2876855775422742e+00 -3.5837314774098354e+00 
        </Neuron>
        <Neuron NSynapses="10">
          -2.1106578726690870e+00 -2.6791421340597221e-01 2.2164207115961172e+01 1.5436396983319151e+01 3.4606435370967348e+00 2.3384965393208712e+00 -1.0501211200835034e+01 2.4381463625479012e+00 4.9910962694882581e+00 -3.8315778252973360e+00 
        </Neuron>
        <Neuron NSynapses="10">
          1.3681285788207362e+00 1.6459658490748815e+01 7.4016825676852607e+00 2.4234540112271560e+01 9.9984535569140647e+00 2.4545754438837233e+00 -5.4308016681476605e+00 5.9772459994751346e+00 -2.2249420583035437e+00 -1.5898421894227146e+00 
        </Neuron>
        <Neuron NSynapses="10">
          -4.2449959023322545e+00 5.0741954663001465e+00 3.7389786463762982e+00 1.6268414184108120e+00 -5.5409123225736623e-01 2.7635187820305300e+00 -4.1921305464212768e+00 1.2883627647592921e+00 5.9412003364847363e+00 1.1229541090802255e+00 
        </Neuron>
        <Neuron NSynapses="10">
          -2.3864204275264052e+00 -1.5692527955460726e+01 -4.0591928147663952e+00 -5.3592922290517615e+00 -1.1806253705103464e+01 -3.0658643847895375e+00 2.9546913841840705e-01 -1.5548196223485551e+01 -2.7537009457312878e+00 -2.4204694056224665e+00 
        </Neuron>
      </Layer>
      <Layer Index="2" NNeurons="11">
        <Neuron NSynapses="5">
          1.1204761435826247e+00 5.8686748667720878e-01 1.0104866932867087e+00 4.8824961373052487e+00 2.8356281741320362e+00 
        </Neuron>
        <Neuron NSynapses="5">
          -1.0299651589432903e+00 -3.4794100536191337e+00 -2.7460689506476590e+00 -5.8517205315451051e+00 -3.2698921830899630e-01 
        </Neuron>
        <Neuron NSynapses="5">
          2.9576929191102739e+00 5.8164397118657751e+00 -1.9399432068443154e+00 6.5503854801611219e+00 3.2871337324225731e+00 
        </Neuron>
        <Neuron NSynapses="5">
          -7.6169987483082400e+00 6.0185933132203917e-01 -3.0340219928995453e+00 -7.4458200929261364e+00 -2.9829990075152226e+00 
        </Neuron>
        <Neuron NSynapses="5">
          -1.5102368554296299e+00 -6.2277475349960287e+00 -2.8842557129407287e+00 -5.0137380867514993e+00 -2.2206671897157575e+00 
        </Neuron>
        <Neuron NSynapses="5">
          -9.3987830702017594e-01 1.6075218158007334e+00 -1.6114783045978720e+00 -4.4615572536830245e-01 -1.9541267369577724e+00 
        </Neuron>
        <Neuron NSynapses="5">
          -7.3329231531104111e-01 -2.4901415535732698e+00 2.5716514535304169e+00 -1.0499614514190194e+00 -5.4276310041253073e-01 
        </Neuron>
        <Neuron NSynapses="5">
          -1.6660964218750460e+00 -6.3009431014290822e+00 -4.4191016060937320e+00 1.8514764297649750e-01 -2.4507923890792784e+00 
        </Neuron>
        <Neuron NSynapses="5">
          -1.0963281224432246e+00 -7.1236017767892541e+00 -3.0600527054633821e+00 -8.2682006730311972e+00 -1.9216819136292060e+00 
        </Neuron>
        <Neuron NSynapses="5">
          -2.4488212917194457e-01 -1.6085892824702923e+00 2.5459482493334429e+00 1.1024611557169179e+00 -5.0631830667474609e-01 
        </Neuron>
        <Neuron NSynapses="5">
          -2.9819303033654525e+00 -1.6324999084322949e+00 1.5606826989462856e+00 -3.2039024229513730e-01 -2.8770082305937623e+00 
        </Neuron>
      </Layer>
      <Layer Index="3" NNeurons="6">
        <Neuron NSynapses="1">
          2.1246330553991393e+00 
        </Neuron>
        <Neuron NSynapses="1">
          2.7510154156423798e+00 
        </Neuron>
        <Neuron NSynapses="1">
          1.5781562378787832e+00 
        </Neuron>
        <Neuron NSynapses="1">
          1.3134417250688337e+00 
        </Neuron>
        <Neuron NSynapses="1">
          1.3427085443964051e+00 
        </Neuron>
        <Neuron NSynapses="1">
          -3.4105621754279594e+00 
        </Neuron>
      </Layer>
      <Layer Index="4" NNeurons="1">
        <Neuron NSynapses="0"/>
      </Layer>
    </Layout>
  </Weights>
</MethodSetup>
